<?xml version="1.0"?>
<opencv_storage>
<cascade>
  <stageType>BOOST</stageType>
  <featureType>HAAR</featureType>
  <height>18</height>
  <width>18</width>
  <stageParams>
    <boostType>GAB</boostType>
    <minHitRate>9.9500000476837158e-001</minHitRate>
    <maxFalseAlarm>5.0000000000000000e-001</maxFalseAlarm>
    <weightTrimRate>9.4999999999999996e-001</weightTrimRate>
    <maxDepth>1</maxDepth>
    <maxWeakCount>100</maxWeakCount></stageParams>
  <featureParams>
    <maxCatCount>0</maxCatCount>
    <featSize>1</featSize>
    <mode>BASIC</mode></featureParams>
  <stageNum>20</stageNum>
  <stages>
    <!-- stage 0 -->
    <_>
      <maxWeakCount>2</maxWeakCount>
      <stageThreshold>4.5801527798175812e-002</stageThreshold>
      <weakClassifiers>
        <_>
          <internalNodes>
            0 -1 78 -4.8313773004338145e-004</internalNodes>
          <leafValues>
            1. -9.5419847965240479e-001</leafValues></_>
        <_>
          <internalNodes>
            0 -1 101 -2.2258263925323263e-005</internalNodes>
          <leafValues>
            1. -8.6727893352508545e-001</leafValues></_></weakClassifiers></_>
    <!-- stage 1 -->
    <_>
      <maxWeakCount>8</maxWeakCount>
      <stageThreshold>-8.5464817285537720e-001</stageThreshold>
      <weakClassifiers>
        <_>
          <internalNodes>
            0 -1 52 -7.5825214385986328e-002</internalNodes>
          <leafValues>
            7.6023483276367188e-001 -6.0158574581146240e-001</leafValues></_>
        <_>
          <internalNodes>
            0 -1 264 2.1581932902336121e-002</internalNodes>
          <leafValues>
            -4.0928420424461365e-001 6.6011768579483032e-001</leafValues></_>
        <_>
          <internalNodes>
            0 -1 6 -4.5475151389837265e-002</internalNodes>
          <leafValues>
            6.1697721481323242e-001 -3.3226174116134644e-001</leafValues></_>
        <_>
          <internalNodes>
            0 -1 72 5.4186634719371796e-002</internalNodes>
          <leafValues>
            -2.3926185071468353e-001 7.5817942619323730e-001</leafValues></_>
        <_>
          <internalNodes>
            0 -1 37 3.6917921155691147e-002</internalNodes>
          <leafValues>
            -3.1036016345024109e-001 6.1143797636032104e-001</leafValues></_>
        <_>
          <internalNodes>
            0 -1 99 5.2620910108089447e-002</internalNodes>
          <leafValues>
            2.3151330649852753e-001 -8.6911571025848389e-001</leafValues></_>
        <_>
          <internalNodes>
            0 -1 132 -3.3689752221107483e-002</internalNodes>
          <leafValues>
            -9.0760296583175659e-001 1.9579993188381195e-001</leafValues></_>
        <_>
          <internalNodes>
            0 -1 40 7.5659185647964478e-002</internalNodes>
          <leafValues>
            -3.0444571375846863e-001 8.0556416511535645e-001</leafValues></_></weakClassifiers></_>
    <!-- stage 2 -->
    <_>
      <maxWeakCount>9</maxWeakCount>
      <stageThreshold>-8.3858025074005127e-001</stageThreshold>
      <weakClassifiers>
        <_>
          <internalNodes>
            0 -1 102 -1.9724273442989215e-005</internalNodes>
          <leafValues>
            6.1535042524337769e-001 -3.8276991248130798e-001</leafValues></_>
        <_>
          <internalNodes>
            0 -1 303 2.5942396372556686e-002</internalNodes>
          <leafValues>
            -3.2688701152801514e-001 6.5764403343200684e-001</leafValues></_>
        <_>
          <internalNodes>
            0 -1 2 -5.3423188626766205e-002</internalNodes>
          <leafValues>
            5.9545886516571045e-001 -3.6297062039375305e-001</leafValues></_>
        <_>
          <internalNodes>
            0 -1 42 5.2879862778354436e-005</internalNodes>
          <leafValues>
            -4.2526975274085999e-001 4.2093473672866821e-001</leafValues></_>
        <_>
          <internalNodes>
            0 -1 122 -2.0899153241771273e-005</internalNodes>
          <leafValues>
            3.8520643115043640e-001 -4.9798572063446045e-001</leafValues></_>
        <_>
          <internalNodes>
            0 -1 115 2.9241640586405993e-003</internalNodes>
          <leafValues>
            1.9244250655174255e-001 -8.4377932548522949e-001</leafValues></_>
        <_>
          <internalNodes>
            0 -1 120 6.5580986440181732e-002</internalNodes>
          <leafValues>
            1.2002854794263840e-001 -8.7501162290573120e-001</leafValues></_>
        <_>
          <internalNodes>
            0 -1 295 1.9096636606263928e-005</internalNodes>
          <leafValues>
            -3.3330580592155457e-001 4.9449327588081360e-001</leafValues></_>
        <_>
          <internalNodes>
            0 -1 220 3.1096845865249634e-002</internalNodes>
          <leafValues>
            -4.4417530298233032e-001 4.3831855058670044e-001</leafValues></_></weakClassifiers></_>
    <!-- stage 3 -->
    <_>
      <maxWeakCount>11</maxWeakCount>
      <stageThreshold>-1.0937632322311401e+000</stageThreshold>
      <weakClassifiers>
        <_>
          <internalNodes>
            0 -1 54 -4.3138965964317322e-002</internalNodes>
          <leafValues>
            5.9052687883377075e-001 -4.7123518586158752e-001</leafValues></_>
        <_>
          <internalNodes>
            0 -1 28 2.0321889678598382e-005</internalNodes>
          <leafValues>
            -4.0478560328483582e-001 4.5293843746185303e-001</leafValues></_>
        <_>
          <internalNodes>
            0 -1 241 -1.7379350538249128e-005</internalNodes>
          <leafValues>
            4.8577946424484253e-001 -3.8671430945396423e-001</leafValues></_>
        <_>
          <internalNodes>
            0 -1 252 -5.1101107150316238e-002</internalNodes>
          <leafValues>
            5.3418904542922974e-001 -3.1029823422431946e-001</leafValues></_>
        <_>
          <internalNodes>
            0 -1 114 1.9743121811188757e-005</internalNodes>
          <leafValues>
            -3.3961686491966248e-001 4.8762512207031250e-001</leafValues></_>
        <_>
          <internalNodes>
            0 -1 109 5.2681677043437958e-002</internalNodes>
          <leafValues>
            -2.1967999637126923e-001 5.9910607337951660e-001</leafValues></_>
        <_>
          <internalNodes>
            0 -1 318 -1.7209020370501094e-005</internalNodes>
          <leafValues>
            3.7724062800407410e-001 -3.8741698861122131e-001</leafValues></_>
        <_>
          <internalNodes>
            0 -1 121 -2.0239231162122451e-005</internalNodes>
          <leafValues>
            2.8088912367820740e-001 -4.8376572132110596e-001</leafValues></_>
        <_>
          <internalNodes>
            0 -1 7 -1.7757836729288101e-002</internalNodes>
          <leafValues>
            -6.6285455226898193e-001 2.3011896014213562e-001</leafValues></_>
        <_>
          <internalNodes>
            0 -1 243 1.8838702089851722e-005</internalNodes>
          <leafValues>
            -3.3740651607513428e-001 4.3008100986480713e-001</leafValues></_>
        <_>
          <internalNodes>
            0 -1 299 2.0232590031810105e-005</internalNodes>
          <leafValues>
            -3.3911269903182983e-001 4.0869840979576111e-001</leafValues></_></weakClassifiers></_>
    <!-- stage 4 -->
    <_>
      <maxWeakCount>12</maxWeakCount>
      <stageThreshold>-8.9325100183486938e-001</stageThreshold>
      <weakClassifiers>
        <_>
          <internalNodes>
            0 -1 45 2.3825395852327347e-002</internalNodes>
          <leafValues>
            -7.8568488359451294e-002 7.5075465440750122e-001</leafValues></_>
        <_>
          <internalNodes>
            0 -1 201 1.5264727175235748e-002</internalNodes>
          <leafValues>
            -4.2108657956123352e-001 4.1615009307861328e-001</leafValues></_>
        <_>
          <internalNodes>
            0 -1 286 -1.7379350538249128e-005</internalNodes>
          <leafValues>
            4.9791118502616882e-001 -3.3236825466156006e-001</leafValues></_>
        <_>
          <internalNodes>
            0 -1 147 1.9096636606263928e-005</internalNodes>
          <leafValues>
            -2.9764172434806824e-001 5.0088793039321899e-001</leafValues></_>
        <_>
          <internalNodes>
            0 -1 51 -7.4018143117427826e-002</internalNodes>
          <leafValues>
            6.0474711656570435e-001 -2.6644477248191833e-001</leafValues></_>
        <_>
          <internalNodes>
            0 -1 302 3.4885033965110779e-002</internalNodes>
          <leafValues>
            -2.4529679119586945e-001 6.8546950817108154e-001</leafValues></_>
        <_>
          <internalNodes>
            0 -1 59 2.0907769794575870e-005</internalNodes>
          <leafValues>
            -3.0291098356246948e-001 4.5747837424278259e-001</leafValues></_>
        <_>
          <internalNodes>
            0 -1 59 -1.8563994672149420e-005</internalNodes>
          <leafValues>
            5.5000549554824829e-001 -2.5157684087753296e-001</leafValues></_>
        <_>
          <internalNodes>
            0 -1 73 -6.0419827699661255e-002</internalNodes>
          <leafValues>
            5.3269135951995850e-001 -2.2416138648986816e-001</leafValues></_>
        <_>
          <internalNodes>
            0 -1 285 1.0525966063141823e-002</internalNodes>
          <leafValues>
            -2.3094560205936432e-001 5.3069162368774414e-001</leafValues></_>
        <_>
          <internalNodes>
            0 -1 112 2.0221137674525380e-005</internalNodes>
          <leafValues>
            -2.7717918157577515e-001 4.5140722393989563e-001</leafValues></_>
        <_>
          <internalNodes>
            0 -1 312 -1.8825448933057487e-005</internalNodes>
          <leafValues>
            4.4084015488624573e-001 -2.5032848119735718e-001</leafValues></_></weakClassifiers></_>
    <!-- stage 5 -->
    <_>
      <maxWeakCount>12</maxWeakCount>
      <stageThreshold>-1.0047892332077026e+000</stageThreshold>
      <weakClassifiers>
        <_>
          <internalNodes>
            0 -1 60 2.6211053133010864e-002</internalNodes>
          <leafValues>
            -1.3558468222618103e-001 6.5762835741043091e-001</leafValues></_>
        <_>
          <internalNodes>
            0 -1 304 -2.0391164071043022e-005</internalNodes>
          <leafValues>
            4.3496295809745789e-001 -3.5455715656280518e-001</leafValues></_>
        <_>
          <internalNodes>
            0 -1 128 3.8769764360040426e-003</internalNodes>
          <leafValues>
            1.8177953362464905e-001 -8.3708685636520386e-001</leafValues></_>
        <_>
          <internalNodes>
            0 -1 288 5.1386072300374508e-005</internalNodes>
          <leafValues>
            -4.4184806942939758e-001 3.0122950673103333e-001</leafValues></_>
        <_>
          <internalNodes>
            0 -1 210 3.9317259506788105e-005</internalNodes>
          <leafValues>
            -3.1577244400978088e-001 4.4538050889968872e-001</leafValues></_>
        <_>
          <internalNodes>
            0 -1 257 -1.9731065549422055e-005</internalNodes>
          <leafValues>
            3.7100800871849060e-001 -3.2333037257194519e-001</leafValues></_>
        <_>
          <internalNodes>
            0 -1 46 1.0239031910896301e-001</internalNodes>
          <leafValues>
            -1.8177154660224915e-001 7.1232444047927856e-001</leafValues></_>
        <_>
          <internalNodes>
            0 -1 209 3.1729090958833694e-002</internalNodes>
          <leafValues>
            -3.8372108340263367e-001 3.8577255606651306e-001</leafValues></_>
        <_>
          <internalNodes>
            0 -1 210 -1.9431874534348026e-005</internalNodes>
          <leafValues>
            4.4586306810379028e-001 -2.9957416653633118e-001</leafValues></_>
        <_>
          <internalNodes>
            0 -1 317 -1.8838702089851722e-005</internalNodes>
          <leafValues>
            3.5133841633796692e-001 -3.4228035807609558e-001</leafValues></_>
        <_>
          <internalNodes>
            0 -1 13 -3.7526148557662964e-001</internalNodes>
          <leafValues>
            6.7250329256057739e-001 -1.8131144344806671e-001</leafValues></_>
        <_>
          <internalNodes>
            0 -1 297 -1.7379350538249128e-005</internalNodes>
          <leafValues>
            5.8258491754531860e-001 -1.9532048702239990e-001</leafValues></_></weakClassifiers></_>
    <!-- stage 6 -->
    <_>
      <maxWeakCount>9</maxWeakCount>
      <stageThreshold>-9.6534359455108643e-001</stageThreshold>
      <weakClassifiers>
        <_>
          <internalNodes>
            0 -1 102 -2.0586774917319417e-004</internalNodes>
          <leafValues>
            6.4313066005706787e-001 -3.6990910768508911e-001</leafValues></_>
        <_>
          <internalNodes>
            0 -1 228 -4.9237190978601575e-005</internalNodes>
          <leafValues>
            5.7358765602111816e-001 -2.4824252724647522e-001</leafValues></_>
        <_>
          <internalNodes>
            0 -1 300 9.7829906735569239e-004</internalNodes>
          <leafValues>
            -3.7299925088882446e-001 4.4733947515487671e-001</leafValues></_>
        <_>
          <internalNodes>
            0 -1 36 1.8328140868106857e-005</internalNodes>
          <leafValues>
            -4.1095933318138123e-001 3.8333719968795776e-001</leafValues></_>
        <_>
          <internalNodes>
            0 -1 207 4.0255752537632361e-005</internalNodes>
          <leafValues>
            -3.6659127473831177e-001 4.2696601152420044e-001</leafValues></_>
        <_>
          <internalNodes>
            0 -1 96 2.0933214575052261e-002</internalNodes>
          <leafValues>
            2.0881207287311554e-001 -8.2017904520034790e-001</leafValues></_>
        <_>
          <internalNodes>
            0 -1 157 3.2675981521606445e-002</internalNodes>
          <leafValues>
            1.0030148923397064e-001 -8.7850826978683472e-001</leafValues></_>
        <_>
          <internalNodes>
            0 -1 329 -1.8838702089851722e-005</internalNodes>
          <leafValues>
            4.8574179410934448e-001 -3.0850657820701599e-001</leafValues></_>
        <_>
          <internalNodes>
            0 -1 107 -2.4747163057327271e-002</internalNodes>
          <leafValues>
            -7.0756852626800537e-001 2.1561534702777863e-001</leafValues></_></weakClassifiers></_>
    <!-- stage 7 -->
    <_>
      <maxWeakCount>10</maxWeakCount>
      <stageThreshold>-1.1463575363159180e+000</stageThreshold>
      <weakClassifiers>
        <_>
          <internalNodes>
            0 -1 5 3.5603574360720813e-004</internalNodes>
          <leafValues>
            -3.8015684485435486e-001 6.4184558391571045e-001</leafValues></_>
        <_>
          <internalNodes>
            0 -1 267 -4.0848779462976381e-005</internalNodes>
          <leafValues>
            6.4533466100692749e-001 -2.6541444659233093e-001</leafValues></_>
        <_>
          <internalNodes>
            0 -1 198 -5.9413406997919083e-003</internalNodes>
          <leafValues>
            5.0684243440628052e-001 -3.5468873381614685e-001</leafValues></_>
        <_>
          <internalNodes>
            0 -1 316 -4.6661654778290540e-005</internalNodes>
          <leafValues>
            4.1790080070495605e-001 -4.0161678194999695e-001</leafValues></_>
        <_>
          <internalNodes>
            0 -1 119 -1.3267092406749725e-002</internalNodes>
          <leafValues>
            2.8692212700843811e-001 -5.2027380466461182e-001</leafValues></_>
        <_>
          <internalNodes>
            0 -1 239 -4.3332642235327512e-005</internalNodes>
          <leafValues>
            5.2992814779281616e-001 -2.8883555531501770e-001</leafValues></_>
        <_>
          <internalNodes>
            0 -1 142 -5.4702293127775192e-003</internalNodes>
          <leafValues>
            4.6652135252952576e-001 -2.8568050265312195e-001</leafValues></_>
        <_>
          <internalNodes>
            0 -1 265 1.0671197669580579e-003</internalNodes>
          <leafValues>
            -2.5696101784706116e-001 4.8888942599296570e-001</leafValues></_>
        <_>
          <internalNodes>
            0 -1 61 4.1971059545176104e-005</internalNodes>
          <leafValues>
            -3.0994427204132080e-001 4.3205881118774414e-001</leafValues></_>
        <_>
          <internalNodes>
            0 -1 127 -3.3028083853423595e-003</internalNodes>
          <leafValues>
            2.9098978638648987e-001 -4.9351572990417480e-001</leafValues></_></weakClassifiers></_>
    <!-- stage 8 -->
    <_>
      <maxWeakCount>10</maxWeakCount>
      <stageThreshold>-9.0956330299377441e-001</stageThreshold>
      <weakClassifiers>
        <_>
          <internalNodes>
            0 -1 130 -1.1757541447877884e-002</internalNodes>
          <leafValues>
            6.0818183422088623e-001 -3.1517240405082703e-001</leafValues></_>
        <_>
          <internalNodes>
            0 -1 22 3.6720730364322662e-002</internalNodes>
          <leafValues>
            -3.7650069594383240e-001 5.3201967477798462e-001</leafValues></_>
        <_>
          <internalNodes>
            0 -1 280 2.8212364763021469e-002</internalNodes>
          <leafValues>
            -3.8206183910369873e-001 4.6117830276489258e-001</leafValues></_>
        <_>
          <internalNodes>
            0 -1 200 1.9770547747612000e-002</internalNodes>
          <leafValues>
            -3.2864955067634583e-001 4.2049857974052429e-001</leafValues></_>
        <_>
          <internalNodes>
            0 -1 271 -3.1002227216959000e-002</internalNodes>
          <leafValues>
            6.7996364831924438e-001 -2.2232024371623993e-001</leafValues></_>
        <_>
          <internalNodes>
            0 -1 125 -7.4264600872993469e-002</internalNodes>
          <leafValues>
            7.1143031120300293e-001 -1.7861111462116241e-001</leafValues></_>
        <_>
          <internalNodes>
            0 -1 16 1.5147420763969421e-001</internalNodes>
          <leafValues>
            2.1455818414688110e-001 -8.4698677062988281e-001</leafValues></_>
        <_>
          <internalNodes>
            0 -1 24 -7.5166583061218262e-002</internalNodes>
          <leafValues>
            -8.0331063270568848e-001 1.0853074491024017e-001</leafValues></_>
        <_>
          <internalNodes>
            0 -1 192 2.4240412749350071e-003</internalNodes>
          <leafValues>
            -2.2781085968017578e-001 4.7782632708549500e-001</leafValues></_>
        <_>
          <internalNodes>
            0 -1 38 7.9543085303157568e-004</internalNodes>
          <leafValues>
            1.8751707673072815e-001 -5.5238252878189087e-001</leafValues></_></weakClassifiers></_>
    <!-- stage 9 -->
    <_>
      <maxWeakCount>14</maxWeakCount>
      <stageThreshold>-8.4435290098190308e-001</stageThreshold>
      <weakClassifiers>
        <_>
          <internalNodes>
            0 -1 47 -3.2142274081707001e-002</internalNodes>
          <leafValues>
            5.8713626861572266e-001 -2.4713805317878723e-001</leafValues></_>
        <_>
          <internalNodes>
            0 -1 313 -8.0825751647353172e-003</internalNodes>
          <leafValues>
            4.9223554134368896e-001 -3.0252820253372192e-001</leafValues></_>
        <_>
          <internalNodes>
            0 -1 237 1.4698538929224014e-002</internalNodes>
          <leafValues>
            -3.7536245584487915e-001 3.7736877799034119e-001</leafValues></_>
        <_>
          <internalNodes>
            0 -1 165 2.8042308986186981e-003</internalNodes>
          <leafValues>
            -2.7752754092216492e-001 4.7384867072105408e-001</leafValues></_>
        <_>
          <internalNodes>
            0 -1 222 -7.6323933899402618e-003</internalNodes>
          <leafValues>
            5.0663256645202637e-001 -2.4672114849090576e-001</leafValues></_>
        <_>
          <internalNodes>
            0 -1 223 6.2289312481880188e-003</internalNodes>
          <leafValues>
            -1.8683543801307678e-001 5.4701268672943115e-001</leafValues></_>
        <_>
          <internalNodes>
            0 -1 108 -4.3238154612481594e-003</internalNodes>
          <leafValues>
            2.2617417573928833e-001 -6.1619788408279419e-001</leafValues></_>
        <_>
          <internalNodes>
            0 -1 30 2.6534490287303925e-002</internalNodes>
          <leafValues>
            -2.8806072473526001e-001 3.7845775485038757e-001</leafValues></_>
        <_>
          <internalNodes>
            0 -1 62 -2.4388562887907028e-002</internalNodes>
          <leafValues>
            7.7001708745956421e-001 -1.6039907932281494e-001</leafValues></_>
        <_>
          <internalNodes>
            0 -1 282 -2.7878876775503159e-002</internalNodes>
          <leafValues>
            5.7838654518127441e-001 -1.2902002036571503e-001</leafValues></_>
        <_>
          <internalNodes>
            0 -1 194 5.9185810387134552e-003</internalNodes>
          <leafValues>
            -1.6652016341686249e-001 5.0189352035522461e-001</leafValues></_>
        <_>
          <internalNodes>
            0 -1 26 -7.8306578099727631e-002</internalNodes>
          <leafValues>
            -8.0161696672439575e-001 1.1796017736196518e-001</leafValues></_>
        <_>
          <internalNodes>
            0 -1 208 -3.9682267233729362e-003</internalNodes>
          <leafValues>
            -6.7489647865295410e-001 1.1951627582311630e-001</leafValues></_>
        <_>
          <internalNodes>
            0 -1 185 -4.0105250664055347e-003</internalNodes>
          <leafValues>
            4.6349558234214783e-001 -2.1978634595870972e-001</leafValues></_></weakClassifiers></_>
    <!-- stage 10 -->
    <_>
      <maxWeakCount>17</maxWeakCount>
      <stageThreshold>-1.0726515054702759e+000</stageThreshold>
      <weakClassifiers>
        <_>
          <internalNodes>
            0 -1 53 -1.7415028065443039e-002</internalNodes>
          <leafValues>
            4.8885208368301392e-001 -4.4639611244201660e-001</leafValues></_>
        <_>
          <internalNodes>
            0 -1 151 -3.8132175803184509e-002</internalNodes>
          <leafValues>
            3.7076470255851746e-001 -2.8170090913772583e-001</leafValues></_>
        <_>
          <internalNodes>
            0 -1 14 1.0171560570597649e-002</internalNodes>
          <leafValues>
            -3.0884730815887451e-001 3.8873299956321716e-001</leafValues></_>
        <_>
          <internalNodes>
            0 -1 94 3.9349876344203949e-002</internalNodes>
          <leafValues>
            1.3098616898059845e-001 -7.8108459711074829e-001</leafValues></_>
        <_>
          <internalNodes>
            0 -1 302 4.4882245361804962e-002</internalNodes>
          <leafValues>
            -1.9886074960231781e-001 5.3918945789337158e-001</leafValues></_>
        <_>
          <internalNodes>
            0 -1 80 -3.4994743764400482e-002</internalNodes>
          <leafValues>
            -6.6820472478866577e-001 1.4529071748256683e-001</leafValues></_>
        <_>
          <internalNodes>
            0 -1 191 -3.1608633697032928e-002</internalNodes>
          <leafValues>
            3.3049327135086060e-001 -2.9852357506752014e-001</leafValues></_>
        <_>
          <internalNodes>
            0 -1 84 1.8818907439708710e-002</internalNodes>
          <leafValues>
            -2.2844013571739197e-001 3.6242237687110901e-001</leafValues></_>
        <_>
          <internalNodes>
            0 -1 11 5.6484371423721313e-002</internalNodes>
          <leafValues>
            -1.7830279469490051e-001 5.3398001194000244e-001</leafValues></_>
        <_>
          <internalNodes>
            0 -1 292 1.3964405283331871e-002</internalNodes>
          <leafValues>
            -2.5099363923072815e-001 3.3498784899711609e-001</leafValues></_>
        <_>
          <internalNodes>
            0 -1 134 -1.3242396526038647e-002</internalNodes>
          <leafValues>
            -7.3824143409729004e-001 1.3456417620182037e-001</leafValues></_>
        <_>
          <internalNodes>
            0 -1 178 4.8824055120348930e-003</internalNodes>
          <leafValues>
            -2.4357417225837708e-001 3.6225774884223938e-001</leafValues></_>
        <_>
          <internalNodes>
            0 -1 319 7.7224301639944315e-004</internalNodes>
          <leafValues>
            1.4633618295192719e-001 -5.8284050226211548e-001</leafValues></_>
        <_>
          <internalNodes>
            0 -1 310 1.5514236874878407e-003</internalNodes>
          <leafValues>
            1.0268842428922653e-001 -6.7678523063659668e-001</leafValues></_>
        <_>
          <internalNodes>
            0 -1 275 1.9874848425388336e-002</internalNodes>
          <leafValues>
            -1.6723918914794922e-001 4.9120116233825684e-001</leafValues></_>
        <_>
          <internalNodes>
            0 -1 129 2.0586244761943817e-002</internalNodes>
          <leafValues>
            1.0582122206687927e-001 -7.5075387954711914e-001</leafValues></_>
        <_>
          <internalNodes>
            0 -1 261 6.6504874266684055e-003</internalNodes>
          <leafValues>
            -1.9781334698200226e-001 3.8519260287284851e-001</leafValues></_></weakClassifiers></_>
    <!-- stage 11 -->
    <_>
      <maxWeakCount>18</maxWeakCount>
      <stageThreshold>-1.0008034706115723e+000</stageThreshold>
      <weakClassifiers>
        <_>
          <internalNodes>
            0 -1 208 3.3580507151782513e-003</internalNodes>
          <leafValues>
            4.5564615726470947e-001 -4.1820767521858215e-001</leafValues></_>
        <_>
          <internalNodes>
            0 -1 77 -3.4088045358657837e-002</internalNodes>
          <leafValues>
            3.8651078939437866e-001 -2.5565075874328613e-001</leafValues></_>
        <_>
          <internalNodes>
            0 -1 144 5.0880216062068939e-002</internalNodes>
          <leafValues>
            -2.0019197463989258e-001 5.1051175594329834e-001</leafValues></_>
        <_>
          <internalNodes>
            0 -1 211 -2.6718936860561371e-003</internalNodes>
          <leafValues>
            -5.8555483818054199e-001 1.3897661864757538e-001</leafValues></_>
        <_>
          <internalNodes>
            0 -1 158 -1.2909760698676109e-002</internalNodes>
          <leafValues>
            -6.2331449985504150e-001 1.4929069578647614e-001</leafValues></_>
        <_>
          <internalNodes>
            0 -1 186 5.7172547094523907e-003</internalNodes>
          <leafValues>
            -1.8038658797740936e-001 4.9142423272132874e-001</leafValues></_>
        <_>
          <internalNodes>
            0 -1 89 1.3691011071205139e-001</internalNodes>
          <leafValues>
            -1.4542300999164581e-001 6.7803478240966797e-001</leafValues></_>
        <_>
          <internalNodes>
            0 -1 173 5.8885805308818817e-002</internalNodes>
          <leafValues>
            1.7495398223400116e-001 -7.3164814710617065e-001</leafValues></_>
        <_>
          <internalNodes>
            0 -1 283 8.5785053670406342e-003</internalNodes>
          <leafValues>
            -3.5068073868751526e-001 2.8925195336341858e-001</leafValues></_>
        <_>
          <internalNodes>
            0 -1 305 1.3397498987615108e-003</internalNodes>
          <leafValues>
            1.3906866312026978e-001 -6.1574977636337280e-001</leafValues></_>
        <_>
          <internalNodes>
            0 -1 305 -7.9353386536240578e-004</internalNodes>
          <leafValues>
            -5.1342654228210449e-001 1.5227787196636200e-001</leafValues></_>
        <_>
          <internalNodes>
            0 -1 262 -7.9193189740180969e-003</internalNodes>
          <leafValues>
            5.1571869850158691e-001 -1.6957482695579529e-001</leafValues></_>
        <_>
          <internalNodes>
            0 -1 231 -1.0955572128295898e-002</internalNodes>
          <leafValues>
            5.0489205121994019e-001 -1.6387908160686493e-001</leafValues></_>
        <_>
          <internalNodes>
            0 -1 281 3.2643284648656845e-002</internalNodes>
          <leafValues>
            -2.2705011069774628e-001 3.6071452498435974e-001</leafValues></_>
        <_>
          <internalNodes>
            0 -1 162 -7.1621173992753029e-003</internalNodes>
          <leafValues>
            4.7488462924957275e-001 -1.8558612465858459e-001</leafValues></_>
        <_>
          <internalNodes>
            0 -1 44 -1.6632172046229243e-003</internalNodes>
          <leafValues>
            -4.8479923605918884e-001 1.6811119019985199e-001</leafValues></_>
        <_>
          <internalNodes>
            0 -1 309 1.0233927750959992e-003</internalNodes>
          <leafValues>
            1.2896366417407990e-001 -5.0238996744155884e-001</leafValues></_>
        <_>
          <internalNodes>
            0 -1 308 -1.5649934066459537e-003</internalNodes>
          <leafValues>
            -4.7241997718811035e-001 1.6926023364067078e-001</leafValues></_></weakClassifiers></_>
    <!-- stage 12 -->
    <_>
      <maxWeakCount>19</maxWeakCount>
      <stageThreshold>-1.2003309726715088e+000</stageThreshold>
      <weakClassifiers>
        <_>
          <internalNodes>
            0 -1 214 -2.9751062393188477e-002</internalNodes>
          <leafValues>
            -3.7749400734901428e-001 4.3324846029281616e-001</leafValues></_>
        <_>
          <internalNodes>
            0 -1 184 -3.1549767591059208e-003</internalNodes>
          <leafValues>
            6.4150375127792358e-001 -1.3647237420082092e-001</leafValues></_>
        <_>
          <internalNodes>
            0 -1 189 -3.0305171385407448e-003</internalNodes>
          <leafValues>
            5.8013838529586792e-001 -1.5817797183990479e-001</leafValues></_>
        <_>
          <internalNodes>
            0 -1 164 -2.9848550911992788e-003</internalNodes>
          <leafValues>
            5.7757705450057983e-001 -1.5525816380977631e-001</leafValues></_>
        <_>
          <internalNodes>
            0 -1 160 -2.7821757830679417e-003</internalNodes>
          <leafValues>
            5.7344555854797363e-001 -1.8085439503192902e-001</leafValues></_>
        <_>
          <internalNodes>
            0 -1 93 7.2779595851898193e-002</internalNodes>
          <leafValues>
            1.4567863941192627e-001 -7.1097511053085327e-001</leafValues></_>
        <_>
          <internalNodes>
            0 -1 18 3.4880839288234711e-002</internalNodes>
          <leafValues>
            -3.6187925934791565e-001 2.5729417800903320e-001</leafValues></_>
        <_>
          <internalNodes>
            0 -1 170 3.4057665616273880e-003</internalNodes>
          <leafValues>
            -5.4283773899078369e-001 1.4028921723365784e-001</leafValues></_>
        <_>
          <internalNodes>
            0 -1 269 -1.2153597548604012e-002</internalNodes>
          <leafValues>
            5.2277398109436035e-001 -1.6183140873908997e-001</leafValues></_>
        <_>
          <internalNodes>
            0 -1 240 -4.2984690517187119e-003</internalNodes>
          <leafValues>
            5.2937024831771851e-001 -1.4404949545860291e-001</leafValues></_>
        <_>
          <internalNodes>
            0 -1 149 3.8299992680549622e-002</internalNodes>
          <leafValues>
            1.3024225831031799e-001 -6.0823911428451538e-001</leafValues></_>
        <_>
          <internalNodes>
            0 -1 152 -2.8576720505952835e-003</internalNodes>
          <leafValues>
            1.4335514605045319e-001 -4.8655819892883301e-001</leafValues></_>
        <_>
          <internalNodes>
            0 -1 265 3.6171451210975647e-003</internalNodes>
          <leafValues>
            -1.2646628916263580e-001 5.9984612464904785e-001</leafValues></_>
        <_>
          <internalNodes>
            0 -1 265 -3.0922843143343925e-003</internalNodes>
          <leafValues>
            5.1431101560592651e-001 -1.3470484316349030e-001</leafValues></_>
        <_>
          <internalNodes>
            0 -1 41 -1.1902195401489735e-003</internalNodes>
          <leafValues>
            -5.8658140897750854e-001 1.2591849267482758e-001</leafValues></_>
        <_>
          <internalNodes>
            0 -1 110 5.6435003876686096e-002</internalNodes>
          <leafValues>
            -1.7520348727703094e-001 4.0381768345832825e-001</leafValues></_>
        <_>
          <internalNodes>
            0 -1 131 1.7158363014459610e-002</internalNodes>
          <leafValues>
            -5.9189522266387939e-001 1.1995378136634827e-001</leafValues></_>
        <_>
          <internalNodes>
            0 -1 195 2.9868058860301971e-002</internalNodes>
          <leafValues>
            1.0371034592390060e-001 -5.6218165159225464e-001</leafValues></_>
        <_>
          <internalNodes>
            0 -1 253 2.6864474639296532e-003</internalNodes>
          <leafValues>
            -1.3993757963180542e-001 4.9602380394935608e-001</leafValues></_></weakClassifiers></_>
    <!-- stage 13 -->
    <_>
      <maxWeakCount>19</maxWeakCount>
      <stageThreshold>-1.0645101070404053e+000</stageThreshold>
      <weakClassifiers>
        <_>
          <internalNodes>
            0 -1 31 9.1011032462120056e-002</internalNodes>
          <leafValues>
            4.1326531767845154e-001 -5.2968037128448486e-001</leafValues></_>
        <_>
          <internalNodes>
            0 -1 235 7.1384739130735397e-003</internalNodes>
          <leafValues>
            -1.2019308656454086e-001 5.4652684926986694e-001</leafValues></_>
        <_>
          <internalNodes>
            0 -1 268 3.5357340238988400e-003</internalNodes>
          <leafValues>
            -1.6932691633701324e-001 5.6020730733871460e-001</leafValues></_>
        <_>
          <internalNodes>
            0 -1 265 2.6893052272498608e-003</internalNodes>
          <leafValues>
            -1.8427689373493195e-001 4.9554908275604248e-001</leafValues></_>
        <_>
          <internalNodes>
            0 -1 254 1.9656731747090816e-003</internalNodes>
          <leafValues>
            -2.6238015294075012e-001 3.1802314519882202e-001</leafValues></_>
        <_>
          <internalNodes>
            0 -1 79 2.8585057705640793e-002</internalNodes>
          <leafValues>
            1.3682843744754791e-001 -7.0410776138305664e-001</leafValues></_>
        <_>
          <internalNodes>
            0 -1 224 5.6907469406723976e-003</internalNodes>
          <leafValues>
            -1.9970636069774628e-001 4.5990455150604248e-001</leafValues></_>
        <_>
          <internalNodes>
            0 -1 307 1.1738659814000130e-003</internalNodes>
          <leafValues>
            1.4056175947189331e-001 -5.7823950052261353e-001</leafValues></_>
        <_>
          <internalNodes>
            0 -1 213 -7.7435141429305077e-003</internalNodes>
          <leafValues>
            5.0130772590637207e-001 -1.5083070099353790e-001</leafValues></_>
        <_>
          <internalNodes>
            0 -1 315 -1.0607358068227768e-002</internalNodes>
          <leafValues>
            3.4501165151596069e-001 -2.1787464618682861e-001</leafValues></_>
        <_>
          <internalNodes>
            0 -1 301 1.6438125167042017e-003</internalNodes>
          <leafValues>
            1.9651602208614349e-001 -4.4840261340141296e-001</leafValues></_>
        <_>
          <internalNodes>
            0 -1 255 -9.1060502454638481e-003</internalNodes>
          <leafValues>
            4.8976993560791016e-001 -1.7221948504447937e-001</leafValues></_>
        <_>
          <internalNodes>
            0 -1 330 4.7727334313094616e-003</internalNodes>
          <leafValues>
            1.6748368740081787e-001 -5.3516161441802979e-001</leafValues></_>
        <_>
          <internalNodes>
            0 -1 150 4.4863671064376831e-002</internalNodes>
          <leafValues>
            -1.9449511170387268e-001 4.3263596296310425e-001</leafValues></_>
        <_>
          <internalNodes>
            0 -1 69 -7.4926847591996193e-003</internalNodes>
          <leafValues>
            -4.9124294519424438e-001 1.4505694806575775e-001</leafValues></_>
        <_>
          <internalNodes>
            0 -1 57 -2.6304118335247040e-002</internalNodes>
          <leafValues>
            1.4974109828472137e-001 -5.1520419120788574e-001</leafValues></_>
        <_>
          <internalNodes>
            0 -1 141 1.3297830708324909e-002</internalNodes>
          <leafValues>
            9.0827345848083496e-002 -7.2726923227310181e-001</leafValues></_>
        <_>
          <internalNodes>
            0 -1 289 1.0701037943363190e-002</internalNodes>
          <leafValues>
            -1.3050886988639832e-001 5.9312307834625244e-001</leafValues></_>
        <_>
          <internalNodes>
            0 -1 156 3.7624863907694817e-003</internalNodes>
          <leafValues>
            -1.2536519765853882e-001 5.1778841018676758e-001</leafValues></_></weakClassifiers></_>
    <!-- stage 14 -->
    <_>
      <maxWeakCount>25</maxWeakCount>
      <stageThreshold>-1.1643544435501099e+000</stageThreshold>
      <weakClassifiers>
        <_>
          <internalNodes>
            0 -1 323 1.0849994141608477e-003</internalNodes>
          <leafValues>
            4.2832928895950317e-001 -3.5322579741477966e-001</leafValues></_>
        <_>
          <internalNodes>
            0 -1 9 1.2791913002729416e-002</internalNodes>
          <leafValues>
            -2.3992513120174408e-001 3.3690679073333740e-001</leafValues></_>
        <_>
          <internalNodes>
            0 -1 260 5.0549272447824478e-002</internalNodes>
          <leafValues>
            -3.0089762806892395e-001 2.8133270144462585e-001</leafValues></_>
        <_>
          <internalNodes>
            0 -1 212 -9.9367555230855942e-003</internalNodes>
          <leafValues>
            6.4102810621261597e-001 -1.0213259607553482e-001</leafValues></_>
        <_>
          <internalNodes>
            0 -1 279 -6.3663728535175323e-002</internalNodes>
          <leafValues>
            4.9873995780944824e-001 -1.7854420840740204e-001</leafValues></_>
        <_>
          <internalNodes>
            0 -1 320 6.4146070508286357e-004</internalNodes>
          <leafValues>
            1.7192760109901428e-001 -4.6404880285263062e-001</leafValues></_>
        <_>
          <internalNodes>
            0 -1 230 1.0457994416356087e-002</internalNodes>
          <leafValues>
            -1.4743752777576447e-001 5.5569469928741455e-001</leafValues></_>
        <_>
          <internalNodes>
            0 -1 274 -6.2079713679850101e-003</internalNodes>
          <leafValues>
            5.6345856189727783e-001 -9.5793142914772034e-002</leafValues></_>
        <_>
          <internalNodes>
            0 -1 146 3.7661599926650524e-003</internalNodes>
          <leafValues>
            1.4076025784015656e-001 -4.9386939406394958e-001</leafValues></_>
        <_>
          <internalNodes>
            0 -1 229 8.2781235687434673e-004</internalNodes>
          <leafValues>
            1.4190965890884399e-001 -4.9166741967201233e-001</leafValues></_>
        <_>
          <internalNodes>
            0 -1 192 4.4671669602394104e-003</internalNodes>
          <leafValues>
            -1.2733599543571472e-001 5.2616494894027710e-001</leafValues></_>
        <_>
          <internalNodes>
            0 -1 246 3.0928412452340126e-002</internalNodes>
          <leafValues>
            1.0308571159839630e-001 -6.9983887672424316e-001</leafValues></_>
        <_>
          <internalNodes>
            0 -1 215 -1.0963149368762970e-001</internalNodes>
          <leafValues>
            -6.2779420614242554e-001 9.5512159168720245e-002</leafValues></_>
        <_>
          <internalNodes>
            0 -1 217 -8.7816286832094193e-003</internalNodes>
          <leafValues>
            1.5842998027801514e-001 -3.8101577758789063e-001</leafValues></_>
        <_>
          <internalNodes>
            0 -1 273 -6.8234931677579880e-003</internalNodes>
          <leafValues>
            5.3527259826660156e-001 -1.1942251026630402e-001</leafValues></_>
        <_>
          <internalNodes>
            0 -1 0 -5.6197238154709339e-004</internalNodes>
          <leafValues>
            -4.1257014870643616e-001 1.5206150710582733e-001</leafValues></_>
        <_>
          <internalNodes>
            0 -1 0 7.9657830065116286e-004</internalNodes>
          <leafValues>
            1.4909869432449341e-001 -4.7296872735023499e-001</leafValues></_>
        <_>
          <internalNodes>
            0 -1 183 5.5782245472073555e-003</internalNodes>
          <leafValues>
            -1.2185135483741760e-001 4.8835369944572449e-001</leafValues></_>
        <_>
          <internalNodes>
            0 -1 180 -1.1342921294271946e-002</internalNodes>
          <leafValues>
            -6.8349194526672363e-001 8.2777805626392365e-002</leafValues></_>
        <_>
          <internalNodes>
            0 -1 225 8.9164627715945244e-003</internalNodes>
          <leafValues>
            -1.5193611383438110e-001 4.4096684455871582e-001</leafValues></_>
        <_>
          <internalNodes>
            0 -1 194 1.0269979014992714e-002</internalNodes>
          <leafValues>
            -9.3139268457889557e-002 5.4799467325210571e-001</leafValues></_>
        <_>
          <internalNodes>
            0 -1 168 4.9424986355006695e-003</internalNodes>
          <leafValues>
            -2.0941819250583649e-001 3.6579850316047668e-001</leafValues></_>
        <_>
          <internalNodes>
            0 -1 64 -1.2724716216325760e-002</internalNodes>
          <leafValues>
            5.7502549886703491e-001 -1.2701287865638733e-001</leafValues></_>
        <_>
          <internalNodes>
            0 -1 72 9.7114667296409607e-002</internalNodes>
          <leafValues>
            -1.3791793584823608e-001 5.1098471879959106e-001</leafValues></_>
        <_>
          <internalNodes>
            0 -1 203 2.8149977326393127e-002</internalNodes>
          <leafValues>
            -1.2824562191963196e-001 4.7659447789192200e-001</leafValues></_></weakClassifiers></_>
    <!-- stage 15 -->
    <_>
      <maxWeakCount>25</maxWeakCount>
      <stageThreshold>-8.8665395975112915e-001</stageThreshold>
      <weakClassifiers>
        <_>
          <internalNodes>
            0 -1 87 -3.2366702798753977e-003</internalNodes>
          <leafValues>
            4.4316434860229492e-001 -2.1445497870445251e-001</leafValues></_>
        <_>
          <internalNodes>
            0 -1 242 3.5358325112611055e-003</internalNodes>
          <leafValues>
            1.3549657166004181e-001 -5.6004059314727783e-001</leafValues></_>
        <_>
          <internalNodes>
            0 -1 140 1.9812656100839376e-003</internalNodes>
          <leafValues>
            -1.7905673384666443e-001 3.6006560921669006e-001</leafValues></_>
        <_>
          <internalNodes>
            0 -1 135 -2.5311317294836044e-003</internalNodes>
          <leafValues>
            4.6529054641723633e-001 -1.3997162878513336e-001</leafValues></_>
        <_>
          <internalNodes>
            0 -1 242 -2.9513698536902666e-003</internalNodes>
          <leafValues>
            -5.3718453645706177e-001 1.1727819591760635e-001</leafValues></_>
        <_>
          <internalNodes>
            0 -1 135 3.7256462965160608e-003</internalNodes>
          <leafValues>
            -1.5293954312801361e-001 4.7233751416206360e-001</leafValues></_>
        <_>
          <internalNodes>
            0 -1 12 6.7994259297847748e-002</internalNodes>
          <leafValues>
            -1.7513231933116913e-001 4.5418649911880493e-001</leafValues></_>
        <_>
          <internalNodes>
            0 -1 287 3.1338959932327271e-002</internalNodes>
          <leafValues>
            -1.6207972168922424e-001 4.4951593875885010e-001</leafValues></_>
        <_>
          <internalNodes>
            0 -1 296 -3.4171290695667267e-002</internalNodes>
          <leafValues>
            3.7473645806312561e-001 -2.0234487950801849e-001</leafValues></_>
        <_>
          <internalNodes>
            0 -1 116 -3.1812764704227448e-002</internalNodes>
          <leafValues>
            1.8419440090656281e-001 -3.1400913000106812e-001</leafValues></_>
        <_>
          <internalNodes>
            0 -1 81 4.4721279293298721e-002</internalNodes>
          <leafValues>
            9.7490794956684113e-002 -6.5740346908569336e-001</leafValues></_>
        <_>
          <internalNodes>
            0 -1 214 -1.9094694405794144e-002</internalNodes>
          <leafValues>
            -4.7391578555107117e-001 1.3757294416427612e-001</leafValues></_>
        <_>
          <internalNodes>
            0 -1 270 7.7520436607301235e-003</internalNodes>
          <leafValues>
            -1.2369941174983978e-001 4.9473452568054199e-001</leafValues></_>
        <_>
          <internalNodes>
            0 -1 291 7.8394273295998573e-003</internalNodes>
          <leafValues>
            -1.1978513002395630e-001 5.1377201080322266e-001</leafValues></_>
        <_>
          <internalNodes>
            0 -1 1 -3.6368700675666332e-003</internalNodes>
          <leafValues>
            -5.6829327344894409e-001 1.1327058076858521e-001</leafValues></_>
        <_>
          <internalNodes>
            0 -1 3 -1.3384760823100805e-003</internalNodes>
          <leafValues>
            -5.6910735368728638e-001 9.7635939717292786e-002</leafValues></_>
        <_>
          <internalNodes>
            0 -1 188 1.4452993869781494e-002</internalNodes>
          <leafValues>
            -1.6866141557693481e-001 3.5953387618064880e-001</leafValues></_>
        <_>
          <internalNodes>
            0 -1 138 9.9866418167948723e-003</internalNodes>
          <leafValues>
            1.0564454644918442e-001 -6.0846507549285889e-001</leafValues></_>
        <_>
          <internalNodes>
            0 -1 197 8.8008921593427658e-003</internalNodes>
          <leafValues>
            -1.3038256764411926e-001 4.8807749152183533e-001</leafValues></_>
        <_>
          <internalNodes>
            0 -1 193 -7.5804102234542370e-003</internalNodes>
          <leafValues>
            3.9362868666648865e-001 -1.5113906562328339e-001</leafValues></_>
        <_>
          <internalNodes>
            0 -1 43 2.9961038380861282e-003</internalNodes>
          <leafValues>
            1.2978869676589966e-001 -4.4537129998207092e-001</leafValues></_>
        <_>
          <internalNodes>
            0 -1 328 -1.8585940124467015e-003</internalNodes>
          <leafValues>
            -5.7467311620712280e-001 1.0176005959510803e-001</leafValues></_>
        <_>
          <internalNodes>
            0 -1 244 -8.8836066424846649e-003</internalNodes>
          <leafValues>
            -6.5584677457809448e-001 7.8151747584342957e-002</leafValues></_>
        <_>
          <internalNodes>
            0 -1 227 -9.5873661339282990e-003</internalNodes>
          <leafValues>
            4.2973536252975464e-001 -1.3000963628292084e-001</leafValues></_>
        <_>
          <internalNodes>
            0 -1 326 -1.5108225634321570e-003</internalNodes>
          <leafValues>
            -5.8713144063949585e-001 8.6778998374938965e-002</leafValues></_></weakClassifiers></_>
    <!-- stage 16 -->
    <_>
      <maxWeakCount>30</maxWeakCount>
      <stageThreshold>-9.4662278890609741e-001</stageThreshold>
      <weakClassifiers>
        <_>
          <internalNodes>
            0 -1 33 -1.0718681151047349e-003</internalNodes>
          <leafValues>
            5.2600586414337158e-001 -3.4258712083101273e-002</leafValues></_>
        <_>
          <internalNodes>
            0 -1 174 6.7688003182411194e-003</internalNodes>
          <leafValues>
            -1.1451414227485657e-001 4.4816672801971436e-001</leafValues></_>
        <_>
          <internalNodes>
            0 -1 284 -2.4588834494352341e-002</internalNodes>
          <leafValues>
            2.5316721200942993e-001 -2.3293901979923248e-001</leafValues></_>
        <_>
          <internalNodes>
            0 -1 106 -5.8196574449539185e-002</internalNodes>
          <leafValues>
            3.6129415035247803e-001 -1.8261872231960297e-001</leafValues></_>
        <_>
          <internalNodes>
            0 -1 198 -4.8579196445643902e-003</internalNodes>
          <leafValues>
            2.7808895707130432e-001 -2.7829238772392273e-001</leafValues></_>
        <_>
          <internalNodes>
            0 -1 82 -1.6733773518353701e-003</internalNodes>
          <leafValues>
            2.3637713491916656e-001 -2.4930045008659363e-001</leafValues></_>
        <_>
          <internalNodes>
            0 -1 103 -3.4006708301603794e-003</internalNodes>
          <leafValues>
            1.8385192751884460e-001 -4.2584559321403503e-001</leafValues></_>
        <_>
          <internalNodes>
            0 -1 226 -1.7887235153466463e-003</internalNodes>
          <leafValues>
            3.0218118429183960e-001 -1.9834271073341370e-001</leafValues></_>
        <_>
          <internalNodes>
            0 -1 74 -1.2226413190364838e-001</internalNodes>
          <leafValues>
            -4.6501815319061279e-001 1.3923178613185883e-001</leafValues></_>
        <_>
          <internalNodes>
            0 -1 118 -1.2184211984276772e-002</internalNodes>
          <leafValues>
            1.3045507669448853e-001 -3.6523932218551636e-001</leafValues></_>
        <_>
          <internalNodes>
            0 -1 27 4.5198738574981689e-002</internalNodes>
          <leafValues>
            7.4190124869346619e-002 -7.4790328741073608e-001</leafValues></_>
        <_>
          <internalNodes>
            0 -1 117 1.0163402184844017e-002</internalNodes>
          <leafValues>
            3.3604376018047333e-002 -8.4136199951171875e-001</leafValues></_>
        <_>
          <internalNodes>
            0 -1 32 -3.9643980562686920e-003</internalNodes>
          <leafValues>
            -5.2121990919113159e-001 8.0730363726615906e-002</leafValues></_>
        <_>
          <internalNodes>
            0 -1 65 2.2767353802919388e-002</internalNodes>
          <leafValues>
            -9.6718959510326385e-002 5.7750630378723145e-001</leafValues></_>
        <_>
          <internalNodes>
            0 -1 49 -1.4428030699491501e-002</internalNodes>
          <leafValues>
            2.8443059325218201e-001 -1.6463297605514526e-001</leafValues></_>
        <_>
          <internalNodes>
            0 -1 113 -1.5909191220998764e-002</internalNodes>
          <leafValues>
            5.1874679327011108e-001 -9.0293034911155701e-002</leafValues></_>
        <_>
          <internalNodes>
            0 -1 234 2.7065430767834187e-003</internalNodes>
          <leafValues>
            -1.1439262330532074e-001 3.8655984401702881e-001</leafValues></_>
        <_>
          <internalNodes>
            0 -1 233 5.8097615838050842e-003</internalNodes>
          <leafValues>
            -6.3505631685256958e-001 7.8116558492183685e-002</leafValues></_>
        <_>
          <internalNodes>
            0 -1 171 3.2665939070284367e-003</internalNodes>
          <leafValues>
            5.4031264036893845e-002 -6.8413478136062622e-001</leafValues></_>
        <_>
          <internalNodes>
            0 -1 153 -3.2395487651228905e-003</internalNodes>
          <leafValues>
            3.6318773031234741e-001 -1.2322741001844406e-001</leafValues></_>
        <_>
          <internalNodes>
            0 -1 98 4.9978308379650116e-002</internalNodes>
          <leafValues>
            5.9042830020189285e-002 -8.0476146936416626e-001</leafValues></_>
        <_>
          <internalNodes>
            0 -1 278 4.0425693441648036e-005</internalNodes>
          <leafValues>
            -2.1492990851402283e-001 1.8243005871772766e-001</leafValues></_>
        <_>
          <internalNodes>
            0 -1 25 -1.0308111086487770e-002</internalNodes>
          <leafValues>
            -6.3330745697021484e-001 6.0529787093400955e-002</leafValues></_>
        <_>
          <internalNodes>
            0 -1 34 3.8914727047085762e-003</internalNodes>
          <leafValues>
            6.1946790665388107e-002 -5.7840335369110107e-001</leafValues></_>
        <_>
          <internalNodes>
            0 -1 251 2.6064487174153328e-003</internalNodes>
          <leafValues>
            -1.2148953229188919e-001 3.5322487354278564e-001</leafValues></_>
        <_>
          <internalNodes>
            0 -1 249 1.8981437897309661e-003</internalNodes>
          <leafValues>
            -1.4196906983852386e-001 3.4374162554740906e-001</leafValues></_>
        <_>
          <internalNodes>
            0 -1 322 -3.7852698005735874e-003</internalNodes>
          <leafValues>
            -6.2526834011077881e-001 6.8331524729728699e-002</leafValues></_>
        <_>
          <internalNodes>
            0 -1 247 -4.1103567928075790e-003</internalNodes>
          <leafValues>
            2.9611375927925110e-001 -1.3800379633903503e-001</leafValues></_>
        <_>
          <internalNodes>
            0 -1 148 3.6621633917093277e-003</internalNodes>
          <leafValues>
            8.2115188241004944e-002 -5.0473064184188843e-001</leafValues></_>
        <_>
          <internalNodes>
            0 -1 293 -4.8416787758469582e-003</internalNodes>
          <leafValues>
            3.6988443136215210e-001 -1.1093784123659134e-001</leafValues></_></weakClassifiers></_>
    <!-- stage 17 -->
    <_>
      <maxWeakCount>34</maxWeakCount>
      <stageThreshold>-1.0011143684387207e+000</stageThreshold>
      <weakClassifiers>
        <_>
          <internalNodes>
            0 -1 19 -7.0591419935226440e-002</internalNodes>
          <leafValues>
            -4.1147741675376892e-001 3.9592212438583374e-001</leafValues></_>
        <_>
          <internalNodes>
            0 -1 190 2.4262011051177979e-002</internalNodes>
          <leafValues>
            2.6731541752815247e-001 -2.6888081431388855e-001</leafValues></_>
        <_>
          <internalNodes>
            0 -1 179 -2.5253840722143650e-003</internalNodes>
          <leafValues>
            3.5882574319839478e-001 -1.8256400525569916e-001</leafValues></_>
        <_>
          <internalNodes>
            0 -1 21 4.2454689741134644e-002</internalNodes>
          <leafValues>
            -2.4305038154125214e-001 2.2829464077949524e-001</leafValues></_>
        <_>
          <internalNodes>
            0 -1 123 1.3051679357886314e-002</internalNodes>
          <leafValues>
            4.1682045906782150e-002 -7.3920834064483643e-001</leafValues></_>
        <_>
          <internalNodes>
            0 -1 216 -2.7794037014245987e-002</internalNodes>
          <leafValues>
            -7.4712699651718140e-001 6.0468159615993500e-002</leafValues></_>
        <_>
          <internalNodes>
            0 -1 176 5.6613627821207047e-003</internalNodes>
          <leafValues>
            -1.3189734518527985e-001 3.9329078793525696e-001</leafValues></_>
        <_>
          <internalNodes>
            0 -1 35 5.0638564862310886e-003</internalNodes>
          <leafValues>
            9.1262236237525940e-002 -4.9318131804466248e-001</leafValues></_>
        <_>
          <internalNodes>
            0 -1 100 2.2928342223167419e-002</internalNodes>
          <leafValues>
            6.4859978854656219e-002 -7.2459024190902710e-001</leafValues></_>
        <_>
          <internalNodes>
            0 -1 218 -2.4307547137141228e-003</internalNodes>
          <leafValues>
            3.6429476737976074e-001 -1.3400509953498840e-001</leafValues></_>
        <_>
          <internalNodes>
            0 -1 39 2.3266542702913284e-003</internalNodes>
          <leafValues>
            8.5471510887145996e-002 -5.3451460599899292e-001</leafValues></_>
        <_>
          <internalNodes>
            0 -1 159 -4.1069625876843929e-003</internalNodes>
          <leafValues>
            3.4269544482231140e-001 -1.3345471024513245e-001</leafValues></_>
        <_>
          <internalNodes>
            0 -1 161 4.7476161271333694e-003</internalNodes>
          <leafValues>
            -1.4619471132755280e-001 3.7663981318473816e-001</leafValues></_>
        <_>
          <internalNodes>
            0 -1 306 3.1138244085013866e-003</internalNodes>
          <leafValues>
            7.2166375815868378e-002 -5.8174222707748413e-001</leafValues></_>
        <_>
          <internalNodes>
            0 -1 276 1.2971665710210800e-002</internalNodes>
          <leafValues>
            -1.2028757482767105e-001 4.0524509549140930e-001</leafValues></_>
        <_>
          <internalNodes>
            0 -1 272 -4.6095438301563263e-002</internalNodes>
          <leafValues>
            5.0860494375228882e-001 -1.0510151088237762e-001</leafValues></_>
        <_>
          <internalNodes>
            0 -1 294 7.8997135162353516e-002</internalNodes>
          <leafValues>
            -1.1873001605272293e-001 3.9998614788055420e-001</leafValues></_>
        <_>
          <internalNodes>
            0 -1 143 4.0233042091131210e-002</internalNodes>
          <leafValues>
            -2.3135437071323395e-001 2.4587689340114594e-001</leafValues></_>
        <_>
          <internalNodes>
            0 -1 66 1.1621973477303982e-002</internalNodes>
          <leafValues>
            -1.0028100013732910e-001 5.1422655582427979e-001</leafValues></_>
        <_>
          <internalNodes>
            0 -1 167 -3.1350522767752409e-003</internalNodes>
          <leafValues>
            3.8749131560325623e-001 -1.1280968040227890e-001</leafValues></_>
        <_>
          <internalNodes>
            0 -1 137 2.3209441453218460e-002</internalNodes>
          <leafValues>
            5.7473625987768173e-002 -7.9596918821334839e-001</leafValues></_>
        <_>
          <internalNodes>
            0 -1 50 -3.8237541913986206e-002</internalNodes>
          <leafValues>
            4.2501547932624817e-001 -1.1268047988414764e-001</leafValues></_>
        <_>
          <internalNodes>
            0 -1 92 -1.8550157546997070e-002</internalNodes>
          <leafValues>
            -8.0032533407211304e-001 6.6636279225349426e-002</leafValues></_>
        <_>
          <internalNodes>
            0 -1 95 9.9579617381095886e-003</internalNodes>
          <leafValues>
            4.8669267445802689e-002 -6.7709642648696899e-001</leafValues></_>
        <_>
          <internalNodes>
            0 -1 177 1.1576952412724495e-002</internalNodes>
          <leafValues>
            -1.0348537564277649e-001 4.5894691348075867e-001</leafValues></_>
        <_>
          <internalNodes>
            0 -1 124 -9.3330219388008118e-002</internalNodes>
          <leafValues>
            6.3302075862884521e-001 -6.1501309275627136e-002</leafValues></_>
        <_>
          <internalNodes>
            0 -1 184 3.9249742403626442e-003</internalNodes>
          <leafValues>
            -9.0500503778457642e-002 4.8047909140586853e-001</leafValues></_>
        <_>
          <internalNodes>
            0 -1 164 -2.0031481981277466e-003</internalNodes>
          <leafValues>
            3.0505999922752380e-001 -1.3565906882286072e-001</leafValues></_>
        <_>
          <internalNodes>
            0 -1 90 -1.5606772154569626e-002</internalNodes>
          <leafValues>
            2.3477993905544281e-001 -1.8438166379928589e-001</leafValues></_>
        <_>
          <internalNodes>
            0 -1 20 2.2646752186119556e-003</internalNodes>
          <leafValues>
            9.8004519939422607e-002 -4.4724020361900330e-001</leafValues></_>
        <_>
          <internalNodes>
            0 -1 259 -1.2037498876452446e-002</internalNodes>
          <leafValues>
            5.0132429599761963e-001 -8.9590847492218018e-002</leafValues></_>
        <_>
          <internalNodes>
            0 -1 17 -1.0175207629799843e-002</internalNodes>
          <leafValues>
            -6.0826969146728516e-001 7.4938073754310608e-002</leafValues></_>
        <_>
          <internalNodes>
            0 -1 196 2.6366831734776497e-003</internalNodes>
          <leafValues>
            -1.2943676114082336e-001 3.1979197263717651e-001</leafValues></_>
        <_>
          <internalNodes>
            0 -1 199 1.8427355680614710e-003</internalNodes>
          <leafValues>
            -1.3361541926860809e-001 3.0153536796569824e-001</leafValues></_></weakClassifiers></_>
    <!-- stage 18 -->
    <_>
      <maxWeakCount>40</maxWeakCount>
      <stageThreshold>-1.0385309457778931e+000</stageThreshold>
      <weakClassifiers>
        <_>
          <internalNodes>
            0 -1 136 -2.9619511216878891e-002</internalNodes>
          <leafValues>
            -3.6304348707199097e-001 4.0023308992385864e-001</leafValues></_>
        <_>
          <internalNodes>
            0 -1 311 -8.0770384520292282e-003</internalNodes>
          <leafValues>
            2.1643672883510590e-001 -2.4340847134590149e-001</leafValues></_>
        <_>
          <internalNodes>
            0 -1 151 -3.1317193061113358e-002</internalNodes>
          <leafValues>
            1.8434299528598785e-001 -2.6986682415008545e-001</leafValues></_>
        <_>
          <internalNodes>
            0 -1 48 5.9281080961227417e-002</internalNodes>
          <leafValues>
            -1.5773744881153107e-001 3.1850641965866089e-001</leafValues></_>
        <_>
          <internalNodes>
            0 -1 85 -6.6498387604951859e-004</internalNodes>
          <leafValues>
            5.3150933235883713e-002 -5.4597592353820801e-001</leafValues></_>
        <_>
          <internalNodes>
            0 -1 23 -5.7587392628192902e-002</internalNodes>
          <leafValues>
            4.7810807824134827e-001 -9.9630415439605713e-002</leafValues></_>
        <_>
          <internalNodes>
            0 -1 56 2.6286244392395020e-002</internalNodes>
          <leafValues>
            -2.3641893267631531e-001 2.3805356025695801e-001</leafValues></_>
        <_>
          <internalNodes>
            0 -1 213 -9.9332686513662338e-003</internalNodes>
          <leafValues>
            3.9718148112297058e-001 -1.1005792021751404e-001</leafValues></_>
        <_>
          <internalNodes>
            0 -1 325 -1.3495162129402161e-003</internalNodes>
          <leafValues>
            -4.8755970597267151e-001 1.0189224779605865e-001</leafValues></_>
        <_>
          <internalNodes>
            0 -1 192 2.9869531281292439e-003</internalNodes>
          <leafValues>
            -1.4269997179508209e-001 3.2547456026077271e-001</leafValues></_>
        <_>
          <internalNodes>
            0 -1 126 -4.5173307880759239e-003</internalNodes>
          <leafValues>
            1.0029119998216629e-001 -4.7287476062774658e-001</leafValues></_>
        <_>
          <internalNodes>
            0 -1 29 -9.1525260359048843e-003</internalNodes>
          <leafValues>
            -6.0847485065460205e-001 6.4882673323154449e-002</leafValues></_>
        <_>
          <internalNodes>
            0 -1 175 -8.5067395120859146e-003</internalNodes>
          <leafValues>
            3.6939671635627747e-001 -1.3108161091804504e-001</leafValues></_>
        <_>
          <internalNodes>
            0 -1 219 3.0580211430788040e-002</internalNodes>
          <leafValues>
            6.8417750298976898e-002 -7.5991725921630859e-001</leafValues></_>
        <_>
          <internalNodes>
            0 -1 266 -9.8437275737524033e-003</internalNodes>
          <leafValues>
            4.4963750243186951e-001 -1.0429205000400543e-001</leafValues></_>
        <_>
          <internalNodes>
            0 -1 97 1.0837893933057785e-002</internalNodes>
          <leafValues>
            9.4142608344554901e-002 -5.2086561918258667e-001</leafValues></_>
        <_>
          <internalNodes>
            0 -1 251 -3.5288480576127768e-003</internalNodes>
          <leafValues>
            3.9489489793777466e-001 -1.1986625194549561e-001</leafValues></_>
        <_>
          <internalNodes>
            0 -1 290 -1.4491524547338486e-002</internalNodes>
          <leafValues>
            4.8530715703964233e-001 -8.5049599409103394e-002</leafValues></_>
        <_>
          <internalNodes>
            0 -1 250 4.6682236716151237e-003</internalNodes>
          <leafValues>
            -1.7765656113624573e-001 2.3949073255062103e-001</leafValues></_>
        <_>
          <internalNodes>
            0 -1 331 1.0037784464657307e-002</internalNodes>
          <leafValues>
            6.9618672132492065e-002 -6.5882003307342529e-001</leafValues></_>
        <_>
          <internalNodes>
            0 -1 258 -2.0658990833908319e-003</internalNodes>
          <leafValues>
            -6.2496590614318848e-001 5.6891780346632004e-002</leafValues></_>
        <_>
          <internalNodes>
            0 -1 145 8.4459800273180008e-003</internalNodes>
          <leafValues>
            -1.2386440485715866e-001 3.5089403390884399e-001</leafValues></_>
        <_>
          <internalNodes>
            0 -1 263 -2.0340257324278355e-003</internalNodes>
          <leafValues>
            2.8799751400947571e-001 -1.4670249819755554e-001</leafValues></_>
        <_>
          <internalNodes>
            0 -1 70 2.7642212808132172e-002</internalNodes>
          <leafValues>
            -1.6507685184478760e-001 2.4917459487915039e-001</leafValues></_>
        <_>
          <internalNodes>
            0 -1 55 -2.6495819911360741e-002</internalNodes>
          <leafValues>
            3.0370861291885376e-001 -1.4310868084430695e-001</leafValues></_>
        <_>
          <internalNodes>
            0 -1 68 -1.7441206146031618e-003</internalNodes>
          <leafValues>
            -5.7952439785003662e-001 7.8408502042293549e-002</leafValues></_>
        <_>
          <internalNodes>
            0 -1 189 2.0003721583634615e-003</internalNodes>
          <leafValues>
            -1.3129845261573792e-001 3.2854634523391724e-001</leafValues></_>
        <_>
          <internalNodes>
            0 -1 221 -3.7246407009661198e-003</internalNodes>
          <leafValues>
            3.1321749091148376e-001 -1.3736788928508759e-001</leafValues></_>
        <_>
          <internalNodes>
            0 -1 298 -4.5156683772802353e-002</internalNodes>
          <leafValues>
            3.9806804060935974e-001 -9.4430387020111084e-002</leafValues></_>
        <_>
          <internalNodes>
            0 -1 327 -3.2226521521806717e-002</internalNodes>
          <leafValues>
            -6.6538190841674805e-001 6.3551448285579681e-002</leafValues></_>
        <_>
          <internalNodes>
            0 -1 71 -2.5174790062010288e-003</internalNodes>
          <leafValues>
            -4.6351280808448792e-001 7.8716509044170380e-002</leafValues></_>
        <_>
          <internalNodes>
            0 -1 132 -2.3259077221155167e-002</internalNodes>
          <leafValues>
            -5.9216660261154175e-001 6.1856988817453384e-002</leafValues></_>
        <_>
          <internalNodes>
            0 -1 166 -5.2209168672561646e-002</internalNodes>
          <leafValues>
            2.7473169565200806e-001 -1.4989311993122101e-001</leafValues></_>
        <_>
          <internalNodes>
            0 -1 185 -2.8966092504560947e-003</internalNodes>
          <leafValues>
            2.3533004522323608e-001 -1.5103754401206970e-001</leafValues></_>
        <_>
          <internalNodes>
            0 -1 105 -3.8255318999290466e-002</internalNodes>
          <leafValues>
            3.8544976711273193e-001 -9.0868100523948669e-002</leafValues></_>
        <_>
          <internalNodes>
            0 -1 160 -2.9552916530519724e-003</internalNodes>
          <leafValues>
            3.7628370523452759e-001 -9.9988803267478943e-002</leafValues></_>
        <_>
          <internalNodes>
            0 -1 172 6.7843524739146233e-003</internalNodes>
          <leafValues>
            5.7434085756540298e-002 -6.6273301839828491e-001</leafValues></_>
        <_>
          <internalNodes>
            0 -1 238 -2.0332362037152052e-003</internalNodes>
          <leafValues>
            2.9019084572792053e-001 -1.2953552603721619e-001</leafValues></_>
        <_>
          <internalNodes>
            0 -1 238 3.2869221176952124e-003</internalNodes>
          <leafValues>
            -1.0556240379810333e-001 3.8818728923797607e-001</leafValues></_>
        <_>
          <internalNodes>
            0 -1 63 -4.5158736407756805e-002</internalNodes>
          <leafValues>
            -7.6657521724700928e-001 5.2660219371318817e-002</leafValues></_></weakClassifiers></_>
    <!-- stage 19 -->
    <_>
      <maxWeakCount>41</maxWeakCount>
      <stageThreshold>-9.6208333969116211e-001</stageThreshold>
      <weakClassifiers>
        <_>
          <internalNodes>
            0 -1 4 3.7691560573875904e-003</internalNodes>
          <leafValues>
            -2.6769343763589859e-002 4.6847778558731079e-001</leafValues></_>
        <_>
          <internalNodes>
            0 -1 181 1.2309646233916283e-002</internalNodes>
          <leafValues>
            -1.5874293446540833e-001 3.2177338004112244e-001</leafValues></_>
        <_>
          <internalNodes>
            0 -1 111 -2.9875434935092926e-002</internalNodes>
          <leafValues>
            -8.3974862098693848e-001 5.5981911718845367e-002</leafValues></_>
        <_>
          <internalNodes>
            0 -1 248 -1.3752754777669907e-002</internalNodes>
          <leafValues>
            2.0756775140762329e-001 -1.9976966083049774e-001</leafValues></_>
        <_>
          <internalNodes>
            0 -1 182 -6.6560730338096619e-003</internalNodes>
          <leafValues>
            -4.5546239614486694e-001 8.9758321642875671e-002</leafValues></_>
        <_>
          <internalNodes>
            0 -1 67 1.6210164874792099e-002</internalNodes>
          <leafValues>
            -1.8762575089931488e-001 3.3259490132331848e-001</leafValues></_>
        <_>
          <internalNodes>
            0 -1 133 2.5554664898663759e-003</internalNodes>
          <leafValues>
            -1.4648114144802094e-001 3.3764663338661194e-001</leafValues></_>
        <_>
          <internalNodes>
            0 -1 8 -8.0027794465422630e-003</internalNodes>
          <leafValues>
            -5.8314883708953857e-001 8.5883431136608124e-002</leafValues></_>
        <_>
          <internalNodes>
            0 -1 204 -1.4607327058911324e-002</internalNodes>
          <leafValues>
            4.1311645507812500e-001 -1.1742760986089706e-001</leafValues></_>
        <_>
          <internalNodes>
            0 -1 205 -4.8291813582181931e-003</internalNodes>
          <leafValues>
            -5.1237374544143677e-001 9.6540756523609161e-002</leafValues></_>
        <_>
          <internalNodes>
            0 -1 206 4.4371751137077808e-003</internalNodes>
          <leafValues>
            5.2795726805925369e-002 -6.3835126161575317e-001</leafValues></_>
        <_>
          <internalNodes>
            0 -1 187 7.9179313033819199e-003</internalNodes>
          <leafValues>
            -1.2286085635423660e-001 3.6945900321006775e-001</leafValues></_>
        <_>
          <internalNodes>
            0 -1 163 -1.7006471753120422e-002</internalNodes>
          <leafValues>
            -7.6207876205444336e-001 6.4535833895206451e-002</leafValues></_>
        <_>
          <internalNodes>
            0 -1 202 1.1260084807872772e-002</internalNodes>
          <leafValues>
            -1.1526552587747574e-001 3.5970857739448547e-001</leafValues></_>
        <_>
          <internalNodes>
            0 -1 232 3.8657803088426590e-002</internalNodes>
          <leafValues>
            5.9929575771093369e-002 -7.3451906442642212e-001</leafValues></_>
        <_>
          <internalNodes>
            0 -1 324 2.0415317267179489e-003</internalNodes>
          <leafValues>
            4.7572638839483261e-002 -6.5298175811767578e-001</leafValues></_>
        <_>
          <internalNodes>
            0 -1 75 -6.1399649828672409e-002</internalNodes>
          <leafValues>
            -3.4132707118988037e-001 1.0128072649240494e-001</leafValues></_>
        <_>
          <internalNodes>
            0 -1 155 2.9626924544572830e-002</internalNodes>
          <leafValues>
            6.0043379664421082e-002 -5.6273418664932251e-001</leafValues></_>
        <_>
          <internalNodes>
            0 -1 314 5.6737558916211128e-003</internalNodes>
          <leafValues>
            -1.5667420625686646e-001 2.2459191083908081e-001</leafValues></_>
        <_>
          <internalNodes>
            0 -1 321 -2.5238755624741316e-003</internalNodes>
          <leafValues>
            -6.4491915702819824e-001 5.9480298310518265e-002</leafValues></_>
        <_>
          <internalNodes>
            0 -1 91 -1.3783047907054424e-002</internalNodes>
          <leafValues>
            3.7862175703048706e-001 -1.0041070729494095e-001</leafValues></_>
        <_>
          <internalNodes>
            0 -1 327 -1.5587736852467060e-002</internalNodes>
          <leafValues>
            -4.1239446401596069e-001 8.3666019141674042e-002</leafValues></_>
        <_>
          <internalNodes>
            0 -1 139 -3.6115008406341076e-003</internalNodes>
          <leafValues>
            3.6946418881416321e-001 -8.8538698852062225e-002</leafValues></_>
        <_>
          <internalNodes>
            0 -1 135 -1.0235768277198076e-003</internalNodes>
          <leafValues>
            2.5289687514305115e-001 -1.3994765281677246e-001</leafValues></_>
        <_>
          <internalNodes>
            0 -1 10 -1.2876796536147594e-003</internalNodes>
          <leafValues>
            -4.5667558908462524e-001 8.5379205644130707e-002</leafValues></_>
        <_>
          <internalNodes>
            0 -1 104 4.4290199875831604e-003</internalNodes>
          <leafValues>
            -1.3771677017211914e-001 2.5852108001708984e-001</leafValues></_>
        <_>
          <internalNodes>
            0 -1 76 8.3878092467784882e-002</internalNodes>
          <leafValues>
            5.5606778711080551e-002 -7.1491885185241699e-001</leafValues></_>
        <_>
          <internalNodes>
            0 -1 169 -2.2806993220001459e-003</internalNodes>
          <leafValues>
            2.4895526468753815e-001 -1.5163168311119080e-001</leafValues></_>
        <_>
          <internalNodes>
            0 -1 160 2.4143361952155828e-003</internalNodes>
          <leafValues>
            -1.3029238581657410e-001 2.5556519627571106e-001</leafValues></_>
        <_>
          <internalNodes>
            0 -1 15 -4.9260575324296951e-003</internalNodes>
          <leafValues>
            -6.0868227481842041e-001 5.9998862445354462e-002</leafValues></_>
        <_>
          <internalNodes>
            0 -1 88 -3.1223464757204056e-002</internalNodes>
          <leafValues>
            -6.5313661098480225e-001 4.3875917792320251e-002</leafValues></_>
        <_>
          <internalNodes>
            0 -1 58 6.4722090959548950e-002</internalNodes>
          <leafValues>
            3.6678954958915710e-002 -7.2529423236846924e-001</leafValues></_>
        <_>
          <internalNodes>
            0 -1 236 5.2284784615039825e-002</internalNodes>
          <leafValues>
            3.9870698004961014e-002 -7.1135860681533813e-001</leafValues></_>
        <_>
          <internalNodes>
            0 -1 245 1.1857917532324791e-002</internalNodes>
          <leafValues>
            -8.1606023013591766e-002 4.1311585903167725e-001</leafValues></_>
        <_>
          <internalNodes>
            0 -1 277 9.1291982680559158e-003</internalNodes>
          <leafValues>
            -9.0132951736450195e-002 3.5314726829528809e-001</leafValues></_>
        <_>
          <internalNodes>
            0 -1 256 7.5298235751688480e-003</internalNodes>
          <leafValues>
            -7.4789613485336304e-002 4.3677869439125061e-001</leafValues></_>
        <_>
          <internalNodes>
            0 -1 0 -2.8610730078071356e-003</internalNodes>
          <leafValues>
            -7.0156413316726685e-001 4.8358742147684097e-002</leafValues></_>
        <_>
          <internalNodes>
            0 -1 154 2.7416686061769724e-003</internalNodes>
          <leafValues>
            -1.4624860882759094e-001 2.0951797068119049e-001</leafValues></_>
        <_>
          <internalNodes>
            0 -1 20 -7.7293519861996174e-003</internalNodes>
          <leafValues>
            -8.5779088735580444e-001 3.9006780833005905e-002</leafValues></_>
        <_>
          <internalNodes>
            0 -1 83 2.1941061277175322e-005</internalNodes>
          <leafValues>
            -1.9452317059040070e-001 1.5810549259185791e-001</leafValues></_>
        <_>
          <internalNodes>
            0 -1 86 -1.4939203392714262e-003</internalNodes>
          <leafValues>
            2.3984131217002869e-001 -1.3699220120906830e-001</leafValues></_></weakClassifiers></_></stages>
  <features>
    <_>
      <rects>
        <_>
          0 0 2 2 -1.</_>
        <_>
          0 0 1 1 2.</_>
        <_>
          1 1 1 1 2.</_></rects>
      <tilted>0</tilted></_>
    <_>
      <rects>
        <_>
          0 0 2 6 -1.</_>
        <_>
          0 0 1 3 2.</_>
        <_>
          1 3 1 3 2.</_></rects>
      <tilted>0</tilted></_>
    <_>
      <rects>
        <_>
          0 0 12 8 -1.</_>
        <_>
          0 0 6 4 2.</_>
        <_>
          6 4 6 4 2.</_></rects>
      <tilted>0</tilted></_>
    <_>
      <rects>
        <_>
          0 1 2 1 -1.</_>
        <_>
          1 1 1 1 2.</_></rects>
      <tilted>0</tilted></_>
    <_>
      <rects>
        <_>
          0 1 2 13 -1.</_>
        <_>
          1 1 1 13 2.</_></rects>
      <tilted>0</tilted></_>
    <_>
      <rects>
        <_>
          0 1 2 15 -1.</_>
        <_>
          1 1 1 15 2.</_></rects>
      <tilted>0</tilted></_>
    <_>
      <rects>
        <_>
          0 1 10 8 -1.</_>
        <_>
          0 1 5 4 2.</_>
        <_>
          5 5 5 4 2.</_></rects>
      <tilted>0</tilted></_>
    <_>
      <rects>
        <_>
          0 2 1 15 -1.</_>
        <_>
          0 7 1 5 3.</_></rects>
      <tilted>0</tilted></_>
    <_>
      <rects>
        <_>
          0 3 1 6 -1.</_>
        <_>
          0 5 1 2 3.</_></rects>
      <tilted>0</tilted></_>
    <_>
      <rects>
        <_>
          0 3 2 11 -1.</_>
        <_>
          1 3 1 11 2.</_></rects>
      <tilted>0</tilted></_>
    <_>
      <rects>
        <_>
          0 4 2 2 -1.</_>
        <_>
          0 4 1 1 2.</_>
        <_>
          1 5 1 1 2.</_></rects>
      <tilted>0</tilted></_>
    <_>
      <rects>
        <_>
          0 4 6 10 -1.</_>
        <_>
          3 4 3 10 2.</_></rects>
      <tilted>0</tilted></_>
    <_>
      <rects>
        <_>
          0 4 6 11 -1.</_>
        <_>
          3 4 3 11 2.</_></rects>
      <tilted>0</tilted></_>
    <_>
      <rects>
        <_>
          0 4 18 10 -1.</_>
        <_>
          6 4 6 10 3.</_></rects>
      <tilted>0</tilted></_>
    <_>
      <rects>
        <_>
          0 5 2 8 -1.</_>
        <_>
          1 5 1 8 2.</_></rects>
      <tilted>0</tilted></_>
    <_>
      <rects>
        <_>
          0 5 2 2 -1.</_>
        <_>
          0 6 2 1 2.</_></rects>
      <tilted>0</tilted></_>
    <_>
      <rects>
        <_>
          0 5 18 8 -1.</_>
        <_>
          9 5 9 8 2.</_></rects>
      <tilted>0</tilted></_>
    <_>
      <rects>
        <_>
          0 6 1 6 -1.</_>
        <_>
          0 8 1 2 3.</_></rects>
      <tilted>0</tilted></_>
    <_>
      <rects>
        <_>
          0 6 6 6 -1.</_>
        <_>
          2 6 2 6 3.</_></rects>
      <tilted>0</tilted></_>
    <_>
      <rects>
        <_>
          0 6 18 4 -1.</_>
        <_>
          9 6 9 4 2.</_></rects>
      <tilted>0</tilted></_>
    <_>
      <rects>
        <_>
          0 7 1 3 -1.</_>
        <_>
          0 8 1 1 3.</_></rects>
      <tilted>0</tilted></_>
    <_>
      <rects>
        <_>
          0 7 6 5 -1.</_>
        <_>
          2 7 2 5 3.</_></rects>
      <tilted>0</tilted></_>
    <_>
      <rects>
        <_>
          0 7 6 6 -1.</_>
        <_>
          2 7 2 6 3.</_></rects>
      <tilted>0</tilted></_>
    <_>
      <rects>
        <_>
          0 7 9 5 -1.</_>
        <_>
          3 7 3 5 3.</_></rects>
      <tilted>0</tilted></_>
    <_>
      <rects>
        <_>
          0 7 18 4 -1.</_>
        <_>
          9 7 9 4 2.</_></rects>
      <tilted>0</tilted></_>
    <_>
      <rects>
        <_>
          0 8 1 6 -1.</_>
        <_>
          0 10 1 2 3.</_></rects>
      <tilted>0</tilted></_>
    <_>
      <rects>
        <_>
          0 8 18 4 -1.</_>
        <_>
          9 8 9 4 2.</_></rects>
      <tilted>0</tilted></_>
    <_>
      <rects>
        <_>
          0 8 11 4 -1.</_>
        <_>
          0 10 11 2 2.</_></rects>
      <tilted>0</tilted></_>
    <_>
      <rects>
        <_>
          0 9 2 1 -1.</_>
        <_>
          1 9 1 1 2.</_></rects>
      <tilted>0</tilted></_>
    <_>
      <rects>
        <_>
          0 9 1 6 -1.</_>
        <_>
          0 11 1 2 3.</_></rects>
      <tilted>0</tilted></_>
    <_>
      <rects>
        <_>
          0 9 6 3 -1.</_>
        <_>
          2 9 2 3 3.</_></rects>
      <tilted>0</tilted></_>
    <_>
      <rects>
        <_>
          0 9 18 5 -1.</_>
        <_>
          9 9 9 5 2.</_></rects>
      <tilted>0</tilted></_>
    <_>
      <rects>
        <_>
          0 10 2 8 -1.</_>
        <_>
          1 10 1 8 2.</_></rects>
      <tilted>0</tilted></_>
    <_>
      <rects>
        <_>
          0 10 3 8 -1.</_>
        <_>
          0 14 3 4 2.</_></rects>
      <tilted>0</tilted></_>
    <_>
      <rects>
        <_>
          0 11 2 4 -1.</_>
        <_>
          0 11 1 2 2.</_>
        <_>
          1 13 1 2 2.</_></rects>
      <tilted>0</tilted></_>
    <_>
      <rects>
        <_>
          0 12 1 6 -1.</_>
        <_>
          0 15 1 3 2.</_></rects>
      <tilted>0</tilted></_>
    <_>
      <rects>
        <_>
          0 12 4 1 -1.</_>
        <_>
          2 12 2 1 2.</_></rects>
      <tilted>0</tilted></_>
    <_>
      <rects>
        <_>
          0 12 12 6 -1.</_>
        <_>
          0 12 6 3 2.</_>
        <_>
          6 15 6 3 2.</_></rects>
      <tilted>0</tilted></_>
    <_>
      <rects>
        <_>
          0 13 2 2 -1.</_>
        <_>
          0 13 1 1 2.</_>
        <_>
          1 14 1 1 2.</_></rects>
      <tilted>0</tilted></_>
    <_>
      <rects>
        <_>
          0 13 2 4 -1.</_>
        <_>
          0 13 1 2 2.</_>
        <_>
          1 15 1 2 2.</_></rects>
      <tilted>0</tilted></_>
    <_>
      <rects>
        <_>
          0 13 18 4 -1.</_>
        <_>
          6 13 6 4 3.</_></rects>
      <tilted>0</tilted></_>
    <_>
      <rects>
        <_>
          0 14 2 1 -1.</_>
        <_>
          1 14 1 1 2.</_></rects>
      <tilted>0</tilted></_>
    <_>
      <rects>
        <_>
          0 16 12 1 -1.</_>
        <_>
          6 16 6 1 2.</_></rects>
      <tilted>0</tilted></_>
    <_>
      <rects>
        <_>
          0 17 4 1 -1.</_>
        <_>
          2 17 2 1 2.</_></rects>
      <tilted>0</tilted></_>
    <_>
      <rects>
        <_>
          1 0 4 2 -1.</_>
        <_>
          1 0 2 1 2.</_>
        <_>
          3 1 2 1 2.</_></rects>
      <tilted>0</tilted></_>
    <_>
      <rects>
        <_>
          1 0 2 18 -1.</_>
        <_>
          1 6 2 6 3.</_></rects>
      <tilted>0</tilted></_>
    <_>
      <rects>
        <_>
          1 0 3 18 -1.</_>
        <_>
          1 6 3 6 3.</_></rects>
      <tilted>0</tilted></_>
    <_>
      <rects>
        <_>
          1 0 8 10 -1.</_>
        <_>
          1 0 4 5 2.</_>
        <_>
          5 5 4 5 2.</_></rects>
      <tilted>0</tilted></_>
    <_>
      <rects>
        <_>
          1 0 15 6 -1.</_>
        <_>
          1 3 15 3 2.</_></rects>
      <tilted>0</tilted></_>
    <_>
      <rects>
        <_>
          1 4 4 8 -1.</_>
        <_>
          1 4 2 4 2.</_>
        <_>
          3 8 2 4 2.</_></rects>
      <tilted>0</tilted></_>
    <_>
      <rects>
        <_>
          1 6 4 5 -1.</_>
        <_>
          3 6 2 5 2.</_></rects>
      <tilted>0</tilted></_>
    <_>
      <rects>
        <_>
          1 6 6 7 -1.</_>
        <_>
          4 6 3 7 2.</_></rects>
      <tilted>0</tilted></_>
    <_>
      <rects>
        <_>
          1 6 15 6 -1.</_>
        <_>
          6 6 5 6 3.</_></rects>
      <tilted>0</tilted></_>
    <_>
      <rects>
        <_>
          1 6 12 3 -1.</_>
        <_>
          7 6 6 3 2.</_></rects>
      <tilted>0</tilted></_>
    <_>
      <rects>
        <_>
          1 6 12 6 -1.</_>
        <_>
          7 6 6 6 2.</_></rects>
      <tilted>0</tilted></_>
    <_>
      <rects>
        <_>
          1 7 4 5 -1.</_>
        <_>
          3 7 2 5 2.</_></rects>
      <tilted>0</tilted></_>
    <_>
      <rects>
        <_>
          1 7 6 7 -1.</_>
        <_>
          3 7 2 7 3.</_></rects>
      <tilted>0</tilted></_>
    <_>
      <rects>
        <_>
          1 7 8 4 -1.</_>
        <_>
          5 7 4 4 2.</_></rects>
      <tilted>0</tilted></_>
    <_>
      <rects>
        <_>
          1 7 17 3 -1.</_>
        <_>
          1 8 17 1 3.</_></rects>
      <tilted>0</tilted></_>
    <_>
      <rects>
        <_>
          1 8 2 1 -1.</_>
        <_>
          2 8 1 1 2.</_></rects>
      <tilted>0</tilted></_>
    <_>
      <rects>
        <_>
          1 8 6 10 -1.</_>
        <_>
          1 8 3 5 2.</_>
        <_>
          4 13 3 5 2.</_></rects>
      <tilted>0</tilted></_>
    <_>
      <rects>
        <_>
          1 9 2 1 -1.</_>
        <_>
          2 9 1 1 2.</_></rects>
      <tilted>0</tilted></_>
    <_>
      <rects>
        <_>
          1 9 6 2 -1.</_>
        <_>
          3 9 2 2 3.</_></rects>
      <tilted>0</tilted></_>
    <_>
      <rects>
        <_>
          1 9 11 4 -1.</_>
        <_>
          1 11 11 2 2.</_></rects>
      <tilted>0</tilted></_>
    <_>
      <rects>
        <_>
          1 10 6 1 -1.</_>
        <_>
          3 10 2 1 3.</_></rects>
      <tilted>0</tilted></_>
    <_>
      <rects>
        <_>
          1 10 4 3 -1.</_>
        <_>
          3 10 2 3 2.</_></rects>
      <tilted>0</tilted></_>
    <_>
      <rects>
        <_>
          1 13 6 1 -1.</_>
        <_>
          4 13 3 1 2.</_></rects>
      <tilted>0</tilted></_>
    <_>
      <rects>
        <_>
          1 13 9 1 -1.</_>
        <_>
          4 13 3 1 3.</_></rects>
      <tilted>0</tilted></_>
    <_>
      <rects>
        <_>
          1 16 2 1 -1.</_>
        <_>
          2 16 1 1 2.</_></rects>
      <tilted>0</tilted></_>
    <_>
      <rects>
        <_>
          1 16 10 1 -1.</_>
        <_>
          6 16 5 1 2.</_></rects>
      <tilted>0</tilted></_>
    <_>
      <rects>
        <_>
          2 0 1 18 -1.</_>
        <_>
          2 6 1 6 3.</_></rects>
      <tilted>0</tilted></_>
    <_>
      <rects>
        <_>
          2 0 4 2 -1.</_>
        <_>
          2 0 2 1 2.</_>
        <_>
          4 1 2 1 2.</_></rects>
      <tilted>0</tilted></_>
    <_>
      <rects>
        <_>
          2 0 2 18 -1.</_>
        <_>
          2 6 2 6 3.</_></rects>
      <tilted>0</tilted></_>
    <_>
      <rects>
        <_>
          2 0 8 10 -1.</_>
        <_>
          2 0 4 5 2.</_>
        <_>
          6 5 4 5 2.</_></rects>
      <tilted>0</tilted></_>
    <_>
      <rects>
        <_>
          2 1 11 16 -1.</_>
        <_>
          2 9 11 8 2.</_></rects>
      <tilted>0</tilted></_>
    <_>
      <rects>
        <_>
          2 4 15 10 -1.</_>
        <_>
          2 9 15 5 2.</_></rects>
      <tilted>0</tilted></_>
    <_>
      <rects>
        <_>
          2 5 14 9 -1.</_>
        <_>
          2 8 14 3 3.</_></rects>
      <tilted>0</tilted></_>
    <_>
      <rects>
        <_>
          2 6 4 7 -1.</_>
        <_>
          4 6 2 7 2.</_></rects>
      <tilted>0</tilted></_>
    <_>
      <rects>
        <_>
          2 6 15 6 -1.</_>
        <_>
          7 6 5 6 3.</_></rects>
      <tilted>0</tilted></_>
    <_>
      <rects>
        <_>
          2 6 6 6 -1.</_>
        <_>
          2 9 6 3 2.</_></rects>
      <tilted>0</tilted></_>
    <_>
      <rects>
        <_>
          2 6 8 8 -1.</_>
        <_>
          2 10 8 4 2.</_></rects>
      <tilted>0</tilted></_>
    <_>
      <rects>
        <_>
          2 6 14 6 -1.</_>
        <_>
          2 9 14 3 2.</_></rects>
      <tilted>0</tilted></_>
    <_>
      <rects>
        <_>
          2 7 2 3 -1.</_>
        <_>
          3 7 1 3 2.</_></rects>
      <tilted>0</tilted></_>
    <_>
      <rects>
        <_>
          2 8 1 3 -1.</_>
        <_>
          2 9 1 1 3.</_></rects>
      <tilted>0</tilted></_>
    <_>
      <rects>
        <_>
          2 8 4 8 -1.</_>
        <_>
          2 8 2 4 2.</_>
        <_>
          4 12 2 4 2.</_></rects>
      <tilted>0</tilted></_>
    <_>
      <rects>
        <_>
          2 8 12 3 -1.</_>
        <_>
          8 8 6 3 2.</_></rects>
      <tilted>0</tilted></_>
    <_>
      <rects>
        <_>
          2 9 4 2 -1.</_>
        <_>
          2 9 2 1 2.</_>
        <_>
          4 10 2 1 2.</_></rects>
      <tilted>0</tilted></_>
    <_>
      <rects>
        <_>
          2 11 8 2 -1.</_>
        <_>
          6 11 4 2 2.</_></rects>
      <tilted>0</tilted></_>
    <_>
      <rects>
        <_>
          2 17 15 1 -1.</_>
        <_>
          7 17 5 1 3.</_></rects>
      <tilted>0</tilted></_>
    <_>
      <rects>
        <_>
          3 0 13 8 -1.</_>
        <_>
          3 4 13 4 2.</_></rects>
      <tilted>0</tilted></_>
    <_>
      <rects>
        <_>
          3 2 4 12 -1.</_>
        <_>
          3 2 2 6 2.</_>
        <_>
          5 8 2 6 2.</_></rects>
      <tilted>0</tilted></_>
    <_>
      <rects>
        <_>
          3 2 8 2 -1.</_>
        <_>
          3 2 4 1 2.</_>
        <_>
          7 3 4 1 2.</_></rects>
      <tilted>0</tilted></_>
    <_>
      <rects>
        <_>
          3 3 3 6 -1.</_>
        <_>
          4 3 1 6 3.</_></rects>
      <tilted>0</tilted></_>
    <_>
      <rects>
        <_>
          3 3 12 12 -1.</_>
        <_>
          3 9 12 6 2.</_></rects>
      <tilted>0</tilted></_>
    <_>
      <rects>
        <_>
          3 4 12 8 -1.</_>
        <_>
          3 8 12 4 2.</_></rects>
      <tilted>0</tilted></_>
    <_>
      <rects>
        <_>
          3 5 9 5 -1.</_>
        <_>
          6 5 3 5 3.</_></rects>
      <tilted>0</tilted></_>
    <_>
      <rects>
        <_>
          3 5 9 6 -1.</_>
        <_>
          6 5 3 6 3.</_></rects>
      <tilted>0</tilted></_>
    <_>
      <rects>
        <_>
          3 5 4 6 -1.</_>
        <_>
          3 8 4 3 2.</_></rects>
      <tilted>0</tilted></_>
    <_>
      <rects>
        <_>
          3 5 13 6 -1.</_>
        <_>
          3 8 13 3 2.</_></rects>
      <tilted>0</tilted></_>
    <_>
      <rects>
        <_>
          3 5 13 8 -1.</_>
        <_>
          3 9 13 4 2.</_></rects>
      <tilted>0</tilted></_>
    <_>
      <rects>
        <_>
          3 6 4 6 -1.</_>
        <_>
          3 9 4 3 2.</_></rects>
      <tilted>0</tilted></_>
    <_>
      <rects>
        <_>
          3 6 12 7 -1.</_>
        <_>
          7 6 4 7 3.</_></rects>
      <tilted>0</tilted></_>
    <_>
      <rects>
        <_>
          3 7 2 3 -1.</_>
        <_>
          4 7 1 3 2.</_></rects>
      <tilted>0</tilted></_>
    <_>
      <rects>
        <_>
          3 7 4 2 -1.</_>
        <_>
          5 7 2 2 2.</_></rects>
      <tilted>0</tilted></_>
    <_>
      <rects>
        <_>
          3 7 3 3 -1.</_>
        <_>
          3 8 3 1 3.</_></rects>
      <tilted>0</tilted></_>
    <_>
      <rects>
        <_>
          3 8 2 10 -1.</_>
        <_>
          3 13 2 5 2.</_></rects>
      <tilted>0</tilted></_>
    <_>
      <rects>
        <_>
          3 12 12 6 -1.</_>
        <_>
          3 15 12 3 2.</_></rects>
      <tilted>0</tilted></_>
    <_>
      <rects>
        <_>
          3 16 12 2 -1.</_>
        <_>
          7 16 4 2 3.</_></rects>
      <tilted>0</tilted></_>
    <_>
      <rects>
        <_>
          4 0 9 16 -1.</_>
        <_>
          7 0 3 16 3.</_></rects>
      <tilted>0</tilted></_>
    <_>
      <rects>
        <_>
          4 0 14 8 -1.</_>
        <_>
          4 0 7 4 2.</_>
        <_>
          11 4 7 4 2.</_></rects>
      <tilted>0</tilted></_>
    <_>
      <rects>
        <_>
          4 0 11 6 -1.</_>
        <_>
          4 3 11 3 2.</_></rects>
      <tilted>0</tilted></_>
    <_>
      <rects>
        <_>
          4 2 3 8 -1.</_>
        <_>
          5 2 1 8 3.</_></rects>
      <tilted>0</tilted></_>
    <_>
      <rects>
        <_>
          4 2 2 2 -1.</_>
        <_>
          4 3 2 1 2.</_></rects>
      <tilted>0</tilted></_>
    <_>
      <rects>
        <_>
          4 2 8 2 -1.</_>
        <_>
          4 2 4 1 2.</_>
        <_>
          8 3 4 1 2.</_></rects>
      <tilted>0</tilted></_>
    <_>
      <rects>
        <_>
          4 3 1 2 -1.</_>
        <_>
          4 4 1 1 2.</_></rects>
      <tilted>0</tilted></_>
    <_>
      <rects>
        <_>
          4 3 9 12 -1.</_>
        <_>
          7 3 3 12 3.</_></rects>
      <tilted>0</tilted></_>
    <_>
      <rects>
        <_>
          4 3 8 9 -1.</_>
        <_>
          4 6 8 3 3.</_></rects>
      <tilted>0</tilted></_>
    <_>
      <rects>
        <_>
          4 4 9 6 -1.</_>
        <_>
          7 4 3 6 3.</_></rects>
      <tilted>0</tilted></_>
    <_>
      <rects>
        <_>
          4 4 7 4 -1.</_>
        <_>
          4 6 7 2 2.</_></rects>
      <tilted>0</tilted></_>
    <_>
      <rects>
        <_>
          4 4 9 4 -1.</_>
        <_>
          4 6 9 2 2.</_></rects>
      <tilted>0</tilted></_>
    <_>
      <rects>
        <_>
          4 4 10 10 -1.</_>
        <_>
          4 9 10 5 2.</_></rects>
      <tilted>0</tilted></_>
    <_>
      <rects>
        <_>
          4 6 2 2 -1.</_>
        <_>
          5 6 1 2 2.</_></rects>
      <tilted>0</tilted></_>
    <_>
      <rects>
        <_>
          4 7 2 2 -1.</_>
        <_>
          5 7 1 2 2.</_></rects>
      <tilted>0</tilted></_>
    <_>
      <rects>
        <_>
          4 8 9 7 -1.</_>
        <_>
          7 8 3 7 3.</_></rects>
      <tilted>0</tilted></_>
    <_>
      <rects>
        <_>
          4 11 10 6 -1.</_>
        <_>
          4 14 10 3 2.</_></rects>
      <tilted>0</tilted></_>
    <_>
      <rects>
        <_>
          4 12 11 6 -1.</_>
        <_>
          4 15 11 3 2.</_></rects>
      <tilted>0</tilted></_>
    <_>
      <rects>
        <_>
          5 1 9 10 -1.</_>
        <_>
          8 1 3 10 3.</_></rects>
      <tilted>0</tilted></_>
    <_>
      <rects>
        <_>
          5 3 9 4 -1.</_>
        <_>
          8 3 3 4 3.</_></rects>
      <tilted>0</tilted></_>
    <_>
      <rects>
        <_>
          5 3 9 12 -1.</_>
        <_>
          8 3 3 12 3.</_></rects>
      <tilted>0</tilted></_>
    <_>
      <rects>
        <_>
          5 4 6 11 -1.</_>
        <_>
          8 4 3 11 2.</_></rects>
      <tilted>0</tilted></_>
    <_>
      <rects>
        <_>
          5 4 9 4 -1.</_>
        <_>
          5 6 9 2 2.</_></rects>
      <tilted>0</tilted></_>
    <_>
      <rects>
        <_>
          5 6 12 4 -1.</_>
        <_>
          11 6 6 4 2.</_></rects>
      <tilted>0</tilted></_>
    <_>
      <rects>
        <_>
          5 6 7 8 -1.</_>
        <_>
          5 10 7 4 2.</_></rects>
      <tilted>0</tilted></_>
    <_>
      <rects>
        <_>
          5 7 2 6 -1.</_>
        <_>
          6 7 1 6 2.</_></rects>
      <tilted>0</tilted></_>
    <_>
      <rects>
        <_>
          5 7 10 4 -1.</_>
        <_>
          10 7 5 4 2.</_></rects>
      <tilted>0</tilted></_>
    <_>
      <rects>
        <_>
          5 8 2 2 -1.</_>
        <_>
          5 8 1 1 2.</_>
        <_>
          6 9 1 1 2.</_></rects>
      <tilted>0</tilted></_>
    <_>
      <rects>
        <_>
          5 8 6 3 -1.</_>
        <_>
          8 8 3 3 2.</_></rects>
      <tilted>0</tilted></_>
    <_>
      <rects>
        <_>
          5 8 9 5 -1.</_>
        <_>
          8 8 3 5 3.</_></rects>
      <tilted>0</tilted></_>
    <_>
      <rects>
        <_>
          5 8 12 4 -1.</_>
        <_>
          9 8 4 4 3.</_></rects>
      <tilted>0</tilted></_>
    <_>
      <rects>
        <_>
          5 9 2 2 -1.</_>
        <_>
          5 9 1 1 2.</_>
        <_>
          6 10 1 1 2.</_></rects>
      <tilted>0</tilted></_>
    <_>
      <rects>
        <_>
          5 9 2 2 -1.</_>
        <_>
          6 9 1 2 2.</_></rects>
      <tilted>0</tilted></_>
    <_>
      <rects>
        <_>
          5 9 9 6 -1.</_>
        <_>
          8 9 3 6 3.</_></rects>
      <tilted>0</tilted></_>
    <_>
      <rects>
        <_>
          5 10 7 3 -1.</_>
        <_>
          5 11 7 1 3.</_></rects>
      <tilted>0</tilted></_>
    <_>
      <rects>
        <_>
          5 11 9 6 -1.</_>
        <_>
          5 14 9 3 2.</_></rects>
      <tilted>0</tilted></_>
    <_>
      <rects>
        <_>
          5 12 7 6 -1.</_>
        <_>
          5 14 7 2 3.</_></rects>
      <tilted>0</tilted></_>
    <_>
      <rects>
        <_>
          5 14 6 2 -1.</_>
        <_>
          5 14 3 1 2.</_>
        <_>
          8 15 3 1 2.</_></rects>
      <tilted>0</tilted></_>
    <_>
      <rects>
        <_>
          5 17 6 1 -1.</_>
        <_>
          7 17 2 1 3.</_></rects>
      <tilted>0</tilted></_>
    <_>
      <rects>
        <_>
          6 0 1 2 -1.</_>
        <_>
          6 1 1 1 2.</_></rects>
      <tilted>0</tilted></_>
    <_>
      <rects>
        <_>
          6 0 3 2 -1.</_>
        <_>
          7 0 1 2 3.</_></rects>
      <tilted>0</tilted></_>
    <_>
      <rects>
        <_>
          6 0 12 3 -1.</_>
        <_>
          12 0 6 3 2.</_></rects>
      <tilted>0</tilted></_>
    <_>
      <rects>
        <_>
          6 0 7 6 -1.</_>
        <_>
          6 2 7 2 3.</_></rects>
      <tilted>0</tilted></_>
    <_>
      <rects>
        <_>
          6 2 6 9 -1.</_>
        <_>
          6 5 6 3 3.</_></rects>
      <tilted>0</tilted></_>
    <_>
      <rects>
        <_>
          6 3 6 14 -1.</_>
        <_>
          8 3 2 14 3.</_></rects>
      <tilted>0</tilted></_>
    <_>
      <rects>
        <_>
          6 5 2 2 -1.</_>
        <_>
          6 5 1 1 2.</_>
        <_>
          7 6 1 1 2.</_></rects>
      <tilted>0</tilted></_>
    <_>
      <rects>
        <_>
          6 5 3 3 -1.</_>
        <_>
          7 5 1 3 3.</_></rects>
      <tilted>0</tilted></_>
    <_>
      <rects>
        <_>
          6 5 9 11 -1.</_>
        <_>
          9 5 3 11 3.</_></rects>
      <tilted>0</tilted></_>
    <_>
      <rects>
        <_>
          6 6 2 2 -1.</_>
        <_>
          6 6 1 1 2.</_>
        <_>
          7 7 1 1 2.</_></rects>
      <tilted>0</tilted></_>
    <_>
      <rects>
        <_>
          6 6 9 5 -1.</_>
        <_>
          9 6 3 5 3.</_></rects>
      <tilted>0</tilted></_>
    <_>
      <rects>
        <_>
          6 6 6 8 -1.</_>
        <_>
          6 10 6 4 2.</_></rects>
      <tilted>0</tilted></_>
    <_>
      <rects>
        <_>
          6 7 1 3 -1.</_>
        <_>
          6 8 1 1 3.</_></rects>
      <tilted>0</tilted></_>
    <_>
      <rects>
        <_>
          6 7 2 2 -1.</_>
        <_>
          6 7 1 1 2.</_>
        <_>
          7 8 1 1 2.</_></rects>
      <tilted>0</tilted></_>
    <_>
      <rects>
        <_>
